<?xml version="1.0"?>
<MethodSetup Method="BDT::BDT">
  <GeneralInfo>
    <Info name="TMVA Release" value="4.2.1 [262657]"/>
    <Info name="ROOT Release" value="6.10/09 [395785]"/>
    <Info name="Creator" value="kutznerv"/>
    <Info name="Date" value="Wed Nov 25 18:14:33 2020"/>
    <Info name="Host" value="Linux vocms0301.cern.ch 2.6.32-696.30.1.el6.x86_64 #1 SMP Tue May 22 06:09:36 CEST 2018 x86_64 x86_64 x86_64 GNU/Linux"/>
    <Info name="Dir" value="/nfs/dust/cms/user/kutznerv/shorttrack/analysis/disappearing-track-tag/2016-long-tracks-nov20-noEdep"/>
    <Info name="Training events" value="1869308"/>
    <Info name="TrainingTime" value="4.97197034e+02"/>
    <Info name="AnalysisType" value="Classification"/>
  </GeneralInfo>
  <Options>
    <Option name="V" modified="Yes">False</Option>
    <Option name="VerbosityLevel" modified="No">Default</Option>
    <Option name="VarTransform" modified="No">None</Option>
    <Option name="H" modified="Yes">False</Option>
    <Option name="CreateMVAPdfs" modified="No">False</Option>
    <Option name="IgnoreNegWeightsInTraining" modified="No">False</Option>
    <Option name="NTrees" modified="Yes">200</Option>
    <Option name="MaxDepth" modified="Yes">4</Option>
    <Option name="MinNodeSize" modified="No">5%</Option>
    <Option name="nCuts" modified="No">20</Option>
    <Option name="BoostType" modified="Yes">AdaBoost</Option>
    <Option name="AdaBoostR2Loss" modified="No">quadratic</Option>
    <Option name="UseBaggedBoost" modified="No">False</Option>
    <Option name="Shrinkage" modified="No">1.000000e+00</Option>
    <Option name="AdaBoostBeta" modified="Yes">5.000000e-01</Option>
    <Option name="UseRandomisedTrees" modified="No">False</Option>
    <Option name="UseNvars" modified="No">3</Option>
    <Option name="UsePoissonNvars" modified="No">True</Option>
    <Option name="BaggedSampleFraction" modified="No">6.000000e-01</Option>
    <Option name="UseYesNoLeaf" modified="No">True</Option>
    <Option name="NegWeightTreatment" modified="No">inverseboostnegweights</Option>
    <Option name="Css" modified="No">1.000000e+00</Option>
    <Option name="Cts_sb" modified="No">1.000000e+00</Option>
    <Option name="Ctb_ss" modified="No">1.000000e+00</Option>
    <Option name="Cbb" modified="No">1.000000e+00</Option>
    <Option name="NodePurityLimit" modified="No">5.000000e-01</Option>
    <Option name="SeparationType" modified="Yes">giniindex</Option>
    <Option name="RegressionLossFunctionBDTG" modified="No">huber</Option>
    <Option name="HuberQuantile" modified="No">7.000000e-01</Option>
    <Option name="DoBoostMonitor" modified="No">False</Option>
    <Option name="UseFisherCuts" modified="No">False</Option>
    <Option name="MinLinCorrForFisher" modified="No">8.000000e-01</Option>
    <Option name="UseExclusiveVars" modified="No">False</Option>
    <Option name="DoPreselection" modified="No">False</Option>
    <Option name="SigToBkgFraction" modified="No">1.000000e+00</Option>
    <Option name="PruneMethod" modified="Yes">nopruning</Option>
    <Option name="PruneStrength" modified="No">0.000000e+00</Option>
    <Option name="PruningValFraction" modified="No">5.000000e-01</Option>
    <Option name="SkipNormalization" modified="No">False</Option>
    <Option name="nEventsMin" modified="No">0</Option>
    <Option name="UseBaggedGrad" modified="No">False</Option>
    <Option name="GradBaggingFraction" modified="No">6.000000e-01</Option>
    <Option name="UseNTrainEvents" modified="No">0</Option>
    <Option name="NNodesMax" modified="No">0</Option>
  </Options>
  <Variables NVar="8">
    <Variable VarIndex="0" Expression="tracks_dxyVtx" Label="tracks_dxyVtx" Title="tracks_dxyVtx" Unit="" Internal="tracks_dxyVtx" Type="F" Min="8.55691906e-10" Max="9.99883488e-02"/>
    <Variable VarIndex="1" Expression="tracks_dzVtx" Label="tracks_dzVtx" Title="tracks_dzVtx" Unit="" Internal="tracks_dzVtx" Type="F" Min="3.34759831e-10" Max="9.99910608e-02"/>
    <Variable VarIndex="2" Expression="tracks_trkRelIso" Label="tracks_trkRelIso" Title="tracks_trkRelIso" Unit="" Internal="tracks_trkRelIso" Type="F" Min="0.00000000e+00" Max="1.99984670e-01"/>
    <Variable VarIndex="3" Expression="tracks_nValidPixelHits" Label="tracks_nValidPixelHits" Title="tracks_nValidPixelHits" Unit="" Internal="tracks_nValidPixelHits" Type="I" Min="2.00000000e+00" Max="9.00000000e+00"/>
    <Variable VarIndex="4" Expression="tracks_nValidTrackerHits" Label="tracks_nValidTrackerHits" Title="tracks_nValidTrackerHits" Unit="" Internal="tracks_nValidTrackerHits" Type="I" Min="3.00000000e+00" Max="2.90000000e+01"/>
    <Variable VarIndex="5" Expression="tracks_nMissingOuterHits" Label="tracks_nMissingOuterHits" Title="tracks_nMissingOuterHits" Unit="" Internal="tracks_nMissingOuterHits" Type="I" Min="2.00000000e+00" Max="1.20000000e+01"/>
    <Variable VarIndex="6" Expression="tracks_ptErrOverPt2" Label="tracks_ptErrOverPt2" Title="tracks_ptErrOverPt2" Unit="" Internal="tracks_ptErrOverPt2" Type="F" Min="1.23897596e-04" Max="1.44831255e-01"/>
    <Variable VarIndex="7" Expression="tracks_chi2perNdof" Label="tracks_chi2perNdof" Title="tracks_chi2perNdof" Unit="" Internal="tracks_chi2perNdof" Type="F" Min="4.92643721e-06" Max="1.32732620e+02"/>
  </Variables>
  <Spectators NSpec="0"/>
  <Classes NClass="2">
    <Class Name="Signal" Index="0"/>
    <Class Name="Background" Index="1"/>
  </Classes>
  <Transformations NTransformations="0"/>
  <MVAPdfs/>
  <Weights NTrees="200" AnalysisType="0">
    <BinaryTree type="DecisionTree" boostWeight="5.8174432251558361e-01" itree="0">
      <Node pos="s" depth="0" NCoef="0" IVar="0" Cut="4.7602406702935696e-03" cType="1" res="-9.9000000000000000e+01" rms="0.0000000000000000e+00" purity="5.0000000000000000e-01" nType="0">
        <Node pos="l" depth="1" NCoef="0" IVar="3" Cut="3.0000000000000000e+00" cType="0" res="-9.9000000000000000e+01" rms="0.0000000000000000e+00" purity="6.9718438386917114e-01" nType="0">
          <Node pos="l" depth="2" NCoef="0" IVar="-1" Cut="6.0000000000000000e+00" cType="0" res="-9.9000000000000000e+01" rms="0.0000000000000000e+00" purity="7.4110627174377441e-01" nType="1"/>
          <Node pos="r" depth="2" NCoef="0" IVar="-1" Cut="0.0000000000000000e+00" cType="1" res="-9.9000000000000000e+01" rms="0.0000000000000000e+00" purity="4.7170808911323547e-01" nType="-1"/>
        </Node>
        <Node pos="r" depth="1" NCoef="0" IVar="-1" Cut="0.0000000000000000e+00" cType="1" res="-9.9000000000000000e+01" rms="0.0000000000000000e+00" purity="1.3527244329452515e-01" nType="-1"/>
      </Node>
    </BinaryTree>
    <BinaryTree type="DecisionTree" boostWeight="4.0649696519952783e-01" itree="1">
      <Node pos="s" depth="0" NCoef="0" IVar="0" Cut="4.7602406702935696e-03" cType="1" res="-9.9000000000000000e+01" rms="0.0000000000000000e+00" purity="4.8563039302825928e-01" nType="0">
        <Node pos="l" depth="1" NCoef="0" IVar="4" Cut="7.0000000000000000e+00" cType="0" res="-9.9000000000000000e+01" rms="0.0000000000000000e+00" purity="6.1531382799148560e-01" nType="0">
          <Node pos="l" depth="2" NCoef="0" IVar="-1" Cut="1.6186363063752651e-03" cType="0" res="-9.9000000000000000e+01" rms="0.0000000000000000e+00" purity="6.3236796855926514e-01" nType="1"/>
          <Node pos="r" depth="2" NCoef="0" IVar="7" Cut="4.5264157652854919e-01" cType="1" res="-9.9000000000000000e+01" rms="0.0000000000000000e+00" purity="5.5107438564300537e-01" nType="0">
            <Node pos="l" depth="3" NCoef="0" IVar="-1" Cut="0.0000000000000000e+00" cType="1" res="-9.9000000000000000e+01" rms="0.0000000000000000e+00" purity="7.6782369613647461e-01" nType="1"/>
            <Node pos="r" depth="3" NCoef="0" IVar="-1" Cut="0.0000000000000000e+00" cType="1" res="-9.9000000000000000e+01" rms="0.0000000000000000e+00" purity="3.3701878786087036e-01" nType="-1"/>
          </Node>
        </Node>
        <Node pos="r" depth="1" NCoef="0" IVar="-1" Cut="0.0000000000000000e+00" cType="1" res="-9.9000000000000000e+01" rms="0.0000000000000000e+00" purity="2.1867930889129639e-01" nType="-1"/>
      </Node>
    </BinaryTree>
    <BinaryTree type="DecisionTree" boostWeight="2.9585872186006529e-01" itree="2">
      <Node pos="s" depth="0" NCoef="0" IVar="2" Cut="9.5230797305703163e-03" cType="1" res="-9.9000000000000000e+01" rms="0.0000000000000000e+00" purity="4.6226271986961365e-01" nType="0">
        <Node pos="l" depth="1" NCoef="0" IVar="3" Cut="3.0000000000000000e+00" cType="0" res="-9.9000000000000000e+01" rms="0.0000000000000000e+00" purity="5.0936943292617798e-01" nType="0">
          <Node pos="l" depth="2" NCoef="0" IVar="-1" Cut="7.0147239603102207e-03" cType="0" res="-9.9000000000000000e+01" rms="0.0000000000000000e+00" purity="5.8495688438415527e-01" nType="1"/>
          <Node pos="r" depth="2" NCoef="0" IVar="-1" Cut="6.0000000000000000e+00" cType="1" res="-9.9000000000000000e+01" rms="0.0000000000000000e+00" purity="3.1098389625549316e-01" nType="-1"/>
        </Node>
        <Node pos="r" depth="1" NCoef="0" IVar="-1" Cut="0.0000000000000000e+00" cType="1" res="-9.9000000000000000e+01" rms="0.0000000000000000e+00" purity="1.6871705651283264e-01" nType="-1"/>
      </Node>
    </BinaryTree>
    <BinaryTree type="DecisionTree" boostWeight="4.1405537780370666e-01" itree="3">
      <Node pos="s" depth="0" NCoef="0" IVar="6" Cut="7.0147239603102207e-03" cType="0" res="-9.9000000000000000e+01" rms="0.0000000000000000e+00" purity="4.4158959388732910e-01" nType="0">
        <Node pos="l" depth="1" NCoef="0" IVar="-1" Cut="0.0000000000000000e+00" cType="1" res="-9.9000000000000000e+01" rms="0.0000000000000000e+00" purity="8.2048267126083374e-01" nType="1"/>
        <Node pos="r" depth="1" NCoef="0" IVar="4" Cut="7.0000000000000000e+00" cType="0" res="-9.9000000000000000e+01" rms="0.0000000000000000e+00" purity="4.1257461905479431e-01" nType="0">
          <Node pos="l" depth="2" NCoef="0" IVar="6" Cut="2.0926953293383121e-03" cType="0" res="-9.9000000000000000e+01" rms="0.0000000000000000e+00" purity="5.0752466917037964e-01" nType="0">
            <Node pos="l" depth="3" NCoef="0" IVar="-1" Cut="0.0000000000000000e+00" cType="1" res="-9.9000000000000000e+01" rms="0.0000000000000000e+00" purity="8.0805516242980957e-01" nType="1"/>
            <Node pos="r" depth="3" NCoef="0" IVar="3" Cut="3.0000000000000000e+00" cType="1" res="-9.9000000000000000e+01" rms="0.0000000000000000e+00" purity="4.5012331008911133e-01" nType="0">
              <Node pos="l" depth="4" NCoef="0" IVar="-1" Cut="0.0000000000000000e+00" cType="1" res="-9.9000000000000000e+01" rms="0.0000000000000000e+00" purity="6.8476533889770508e-01" nType="1"/>
              <Node pos="r" depth="4" NCoef="0" IVar="-1" Cut="0.0000000000000000e+00" cType="1" res="-9.9000000000000000e+01" rms="0.0000000000000000e+00" purity="4.0737980604171753e-01" nType="-1"/>
            </Node>
          </Node>
          <Node pos="r" depth="2" NCoef="0" IVar="-1" Cut="3.8052296731621027e-03" cType="0" res="-9.9000000000000000e+01" rms="0.0000000000000000e+00" purity="2.1519835293292999e-01" nType="-1"/>
        </Node>
      </Node>
    </BinaryTree>
    <BinaryTree type="DecisionTree" boostWeight="3.1511270763777166e-01" itree="4">
      <Node pos="s" depth="0" NCoef="0" IVar="0" Cut="4.7602406702935696e-03" cType="1" res="-9.9000000000000000e+01" rms="0.0000000000000000e+00" purity="4.9134477972984314e-01" nType="0">
        <Node pos="l" depth="1" NCoef="0" IVar="0" Cut="1.1333898873999715e-03" cType="0" res="-9.9000000000000000e+01" rms="0.0000000000000000e+00" purity="5.5846399068832397e-01" nType="0">
          <Node pos="l" depth="2" NCoef="0" IVar="1" Cut="9.5176789909601212e-03" cType="1" res="-9.9000000000000000e+01" rms="0.0000000000000000e+00" purity="5.9188002347946167e-01" nType="0">
            <Node pos="l" depth="3" NCoef="0" IVar="-1" Cut="6.0000000000000000e+00" cType="0" res="-9.9000000000000000e+01" rms="0.0000000000000000e+00" purity="6.1211824417114258e-01" nType="1"/>
            <Node pos="r" depth="3" NCoef="0" IVar="-1" Cut="0.0000000000000000e+00" cType="1" res="-9.9000000000000000e+01" rms="0.0000000000000000e+00" purity="4.8646587133407593e-01" nType="-1"/>
          </Node>
          <Node pos="r" depth="2" NCoef="0" IVar="1" Cut="4.7588548623025417e-03" cType="0" res="-9.9000000000000000e+01" rms="0.0000000000000000e+00" purity="5.2639865875244141e-01" nType="0">
            <Node pos="l" depth="3" NCoef="0" IVar="-1" Cut="0.0000000000000000e+00" cType="1" res="-9.9000000000000000e+01" rms="0.0000000000000000e+00" purity="6.3396757841110229e-01" nType="1"/>
            <Node pos="r" depth="3" NCoef="0" IVar="7" Cut="5.0248271226882935e-01" cType="1" res="-9.9000000000000000e+01" rms="0.0000000000000000e+00" purity="4.9430811405181885e-01" nType="0">
              <Node pos="l" depth="4" NCoef="0" IVar="-1" Cut="0.0000000000000000e+00" cType="1" res="-9.9000000000000000e+01" rms="0.0000000000000000e+00" purity="8.0661451816558838e-01" nType="1"/>
              <Node pos="r" depth="4" NCoef="0" IVar="-1" Cut="0.0000000000000000e+00" cType="1" res="-9.9000000000000000e+01" rms="0.0000000000000000e+00" purity="3.4353864192962646e-01" nType="-1"/>
            </Node>
          </Node>
        </Node>
        <Node pos="r" depth="1" NCoef="0" IVar="-1" Cut="0.0000000000000000e+00" cType="1" res="-9.9000000000000000e+01" rms="0.0000000000000000e+00" purity="3.2520371675491333e-01" nType="-1"/>
      </Node>
    </BinaryTree>
    <BinaryTree type="DecisionTree" boostWeight="2.2161805596765694e-01" itree="5">
      <Node pos="s" depth="0" NCoef="0" IVar="2" Cut="9.5230797305703163e-03" cType="1" res="-9.9000000000000000e+01" rms="0.0000000000000000e+00" purity="4.9628171324729919e-01" nType="0">
        <Node pos="l" depth="1" NCoef="0" IVar="2" Cut="4.5347301056608558e-04" cType="0" res="-9.9000000000000000e+01" rms="0.0000000000000000e+00" purity="5.2981048822402954e-01" nType="0">
          <Node pos="l" depth="2" NCoef="0" IVar="-1" Cut="3.4766281023621559e-03" cType="1" res="-9.9000000000000000e+01" rms="0.0000000000000000e+00" purity="7.2870934009552002e-01" nType="1"/>
          <Node pos="r" depth="2" NCoef="0" IVar="3" Cut="3.0000000000000000e+00" cType="0" res="-9.9000000000000000e+01" rms="0.0000000000000000e+00" purity="4.8686426877975464e-01" nType="0">
            <Node pos="l" depth="3" NCoef="0" IVar="-1" Cut="4.7544012777507305e-03" cType="0" res="-9.9000000000000000e+01" rms="0.0000000000000000e+00" purity="5.3156298398971558e-01" nType="1"/>
            <Node pos="r" depth="3" NCoef="0" IVar="-1" Cut="0.0000000000000000e+00" cType="1" res="-9.9000000000000000e+01" rms="0.0000000000000000e+00" purity="3.5293769836425781e-01" nType="-1"/>
          </Node>
        </Node>
        <Node pos="r" depth="1" NCoef="0" IVar="-1" Cut="0.0000000000000000e+00" cType="1" res="-9.9000000000000000e+01" rms="0.0000000000000000e+00" purity="2.5835388898849487e-01" nType="-1"/>
      </Node>
    </BinaryTree>
    <BinaryTree type="DecisionTree" boostWeight="2.1844703322608830e-01" itree="6">
      <Node pos="s" depth="0" NCoef="0" IVar="6" Cut="7.0147239603102207e-03" cType="0" res="-9.9000000000000000e+01" rms="0.0000000000000000e+00" purity="4.7401478886604309e-01" nType="0">
        <Node pos="l" depth="1" NCoef="0" IVar="-1" Cut="0.0000000000000000e+00" cType="1" res="-9.9000000000000000e+01" rms="0.0000000000000000e+00" purity="7.7254718542098999e-01" nType="1"/>
        <Node pos="r" depth="1" NCoef="0" IVar="4" Cut="6.0000000000000000e+00" cType="0" res="-9.9000000000000000e+01" rms="0.0000000000000000e+00" purity="4.5279148221015930e-01" nType="0">
          <Node pos="l" depth="2" NCoef="0" IVar="6" Cut="3.0770944431424141e-03" cType="0" res="-9.9000000000000000e+01" rms="0.0000000000000000e+00" purity="5.0090467929840088e-01" nType="0">
            <Node pos="l" depth="3" NCoef="0" IVar="-1" Cut="0.0000000000000000e+00" cType="1" res="-9.9000000000000000e+01" rms="0.0000000000000000e+00" purity="7.3777151107788086e-01" nType="1"/>
            <Node pos="r" depth="3" NCoef="0" IVar="4" Cut="8.0000000000000000e+00" cType="0" res="-9.9000000000000000e+01" rms="0.0000000000000000e+00" purity="4.7232112288475037e-01" nType="0">
              <Node pos="l" depth="4" NCoef="0" IVar="-1" Cut="0.0000000000000000e+00" cType="1" res="-9.9000000000000000e+01" rms="0.0000000000000000e+00" purity="5.0626552104949951e-01" nType="1"/>
              <Node pos="r" depth="4" NCoef="0" IVar="-1" Cut="0.0000000000000000e+00" cType="1" res="-9.9000000000000000e+01" rms="0.0000000000000000e+00" purity="3.4708532691001892e-01" nType="-1"/>
            </Node>
          </Node>
          <Node pos="r" depth="2" NCoef="0" IVar="-1" Cut="0.0000000000000000e+00" cType="1" res="-9.9000000000000000e+01" rms="0.0000000000000000e+00" purity="2.4822703003883362e-01" nType="-1"/>
        </Node>
      </Node>
    </BinaryTree>
    <BinaryTree type="DecisionTree" boostWeight="2.5629613545570251e-01" itree="7">
      <Node pos="s" depth="0" NCoef="0" IVar="6" Cut="7.0147239603102207e-03" cType="0" res="-9.9000000000000000e+01" rms="0.0000000000000000e+00" purity="4.5351907610893250e-01" nType="0">
        <Node pos="l" depth="1" NCoef="0" IVar="-1" Cut="0.0000000000000000e+00" cType="1" res="-9.9000000000000000e+01" rms="0.0000000000000000e+00" purity="7.3190385103225708e-01" nType="1"/>
        <Node pos="r" depth="1" NCoef="0" IVar="6" Cut="4.3896324932575226e-03" cType="0" res="-9.9000000000000000e+01" rms="0.0000000000000000e+00" purity="4.3450549244880676e-01" nType="0">
          <Node pos="l" depth="2" NCoef="0" IVar="-1" Cut="0.0000000000000000e+00" cType="1" res="-9.9000000000000000e+01" rms="0.0000000000000000e+00" purity="6.9007289409637451e-01" nType="1"/>
          <Node pos="r" depth="2" NCoef="0" IVar="4" Cut="6.0000000000000000e+00" cType="0" res="-9.9000000000000000e+01" rms="0.0000000000000000e+00" purity="4.1076526045799255e-01" nType="0">
            <Node pos="l" depth="3" NCoef="0" IVar="6" Cut="1.3426628429442644e-03" cType="0" res="-9.9000000000000000e+01" rms="0.0000000000000000e+00" purity="4.5019099116325378e-01" nType="0">
              <Node pos="l" depth="4" NCoef="0" IVar="-1" Cut="0.0000000000000000e+00" cType="1" res="-9.9000000000000000e+01" rms="0.0000000000000000e+00" purity="5.4094672203063965e-01" nType="1"/>
              <Node pos="r" depth="4" NCoef="0" IVar="-1" Cut="0.0000000000000000e+00" cType="1" res="-9.9000000000000000e+01" rms="0.0000000000000000e+00" purity="4.0749698877334595e-01" nType="-1"/>
            </Node>
            <Node pos="r" depth="3" NCoef="0" IVar="-1" Cut="0.0000000000000000e+00" cType="1" res="-9.9000000000000000e+01" rms="0.0000000000000000e+00" purity="1.9037972390651703e-01" nType="-1"/>
          </Node>
        </Node>
      </Node>
    </BinaryTree>
    <BinaryTree type="DecisionTree" boostWeight="2.3644934854998081e-01" itree="8">
      <Node pos="s" depth="0" NCoef="0" IVar="2" Cut="9.5230797305703163e-03" cType="1" res="-9.9000000000000000e+01" rms="0.0000000000000000e+00" purity="4.6831890940666199e-01" nType="0">
        <Node pos="l" depth="1" NCoef="0" IVar="2" Cut="4.5347301056608558e-04" cType="0" res="-9.9000000000000000e+01" rms="0.0000000000000000e+00" purity="4.9203675985336304e-01" nType="0">
          <Node pos="l" depth="2" NCoef="0" IVar="2" Cut="3.4766281023621559e-03" cType="1" res="-9.9000000000000000e+01" rms="0.0000000000000000e+00" purity="6.8200260400772095e-01" nType="0">
            <Node pos="l" depth="3" NCoef="0" IVar="-1" Cut="0.0000000000000000e+00" cType="1" res="-9.9000000000000000e+01" rms="0.0000000000000000e+00" purity="8.7643986940383911e-01" nType="1"/>
            <Node pos="r" depth="3" NCoef="0" IVar="-1" Cut="0.0000000000000000e+00" cType="1" res="-9.9000000000000000e+01" rms="0.0000000000000000e+00" purity="4.5630490779876709e-01" nType="-1"/>
          </Node>
          <Node pos="r" depth="2" NCoef="0" IVar="0" Cut="4.7544012777507305e-03" cType="1" res="-9.9000000000000000e+01" rms="0.0000000000000000e+00" purity="4.5322853326797485e-01" nType="0">
            <Node pos="l" depth="3" NCoef="0" IVar="3" Cut="3.0000000000000000e+00" cType="1" res="-9.9000000000000000e+01" rms="0.0000000000000000e+00" purity="4.7972813248634338e-01" nType="0">
              <Node pos="l" depth="4" NCoef="0" IVar="-1" Cut="0.0000000000000000e+00" cType="1" res="-9.9000000000000000e+01" rms="0.0000000000000000e+00" purity="6.2104374170303345e-01" nType="1"/>
              <Node pos="r" depth="4" NCoef="0" IVar="-1" Cut="0.0000000000000000e+00" cType="1" res="-9.9000000000000000e+01" rms="0.0000000000000000e+00" purity="4.4889819622039795e-01" nType="-1"/>
            </Node>
            <Node pos="r" depth="3" NCoef="0" IVar="-1" Cut="0.0000000000000000e+00" cType="1" res="-9.9000000000000000e+01" rms="0.0000000000000000e+00" purity="3.7200239300727844e-01" nType="-1"/>
          </Node>
        </Node>
        <Node pos="r" depth="1" NCoef="0" IVar="-1" Cut="0.0000000000000000e+00" cType="1" res="-9.9000000000000000e+01" rms="0.0000000000000000e+00" purity="2.9221704602241516e-01" nType="-1"/>
      </Node>
    </BinaryTree>
    <BinaryTree type="DecisionTree" boostWeight="1.6674349055440760e-01" itree="9">
      <Node pos="s" depth="0" NCoef="0" IVar="1" Cut="1.4284437522292137e-02" cType="1" res="-9.9000000000000000e+01" rms="0.0000000000000000e+00" purity="5.0624829530715942e-01" nType="0">
        <Node pos="l" depth="1" NCoef="0" IVar="6" Cut="7.0147239603102207e-03" cType="0" res="-9.9000000000000000e+01" rms="0.0000000000000000e+00" purity="5.3166264295578003e-01" nType="0">
          <Node pos="l" depth="2" NCoef="0" IVar="-1" Cut="0.0000000000000000e+00" cType="1" res="-9.9000000000000000e+01" rms="0.0000000000000000e+00" purity="8.1283771991729736e-01" nType="1"/>
          <Node pos="r" depth="2" NCoef="0" IVar="6" Cut="4.0614986792206764e-03" cType="0" res="-9.9000000000000000e+01" rms="0.0000000000000000e+00" purity="5.1373422145843506e-01" nType="0">
            <Node pos="l" depth="3" NCoef="0" IVar="-1" Cut="0.0000000000000000e+00" cType="1" res="-9.9000000000000000e+01" rms="0.0000000000000000e+00" purity="7.4438768625259399e-01" nType="1"/>
            <Node pos="r" depth="3" NCoef="0" IVar="4" Cut="7.0000000000000000e+00" cType="0" res="-9.9000000000000000e+01" rms="0.0000000000000000e+00" purity="4.9145299196243286e-01" nType="0">
              <Node pos="l" depth="4" NCoef="0" IVar="-1" Cut="0.0000000000000000e+00" cType="1" res="-9.9000000000000000e+01" rms="0.0000000000000000e+00" purity="5.1821303367614746e-01" nType="1"/>
              <Node pos="r" depth="4" NCoef="0" IVar="-1" Cut="0.0000000000000000e+00" cType="1" res="-9.9000000000000000e+01" rms="0.0000000000000000e+00" purity="3.7291732430458069e-01" nType="-1"/>
            </Node>
          </Node>
        </Node>
        <Node pos="r" depth="1" NCoef="0" IVar="-1" Cut="0.0000000000000000e+00" cType="1" res="-9.9000000000000000e+01" rms="0.0000000000000000e+00" purity="3.5155835747718811e-01" nType="-1"/>
      </Node>
    </BinaryTree>
    <BinaryTree type="DecisionTree" boostWeight="1.7064801086362422e-01" itree="10">
      <Node pos="s" depth="0" NCoef="0" IVar="2" Cut="9.5230797305703163e-03" cType="1" res="-9.9000000000000000e+01" rms="0.0000000000000000e+00" purity="4.8750391602516174e-01" nType="0">
        <Node pos="l" depth="1" NCoef="0" IVar="2" Cut="4.5347301056608558e-04" cType="0" res="-9.9000000000000000e+01" rms="0.0000000000000000e+00" purity="5.0844115018844604e-01" nType="0">
          <Node pos="l" depth="2" NCoef="0" IVar="-1" Cut="2.6128701865673065e-03" cType="1" res="-9.9000000000000000e+01" rms="0.0000000000000000e+00" purity="6.7232811450958252e-01" nType="1"/>
          <Node pos="r" depth="2" NCoef="0" IVar="3" Cut="3.0000000000000000e+00" cType="0" res="-9.9000000000000000e+01" rms="0.0000000000000000e+00" purity="4.7680720686912537e-01" nType="0">
            <Node pos="l" depth="3" NCoef="0" IVar="0" Cut="4.7544012777507305e-03" cType="0" res="-9.9000000000000000e+01" rms="0.0000000000000000e+00" purity="5.0115531682968140e-01" nType="0">
              <Node pos="l" depth="4" NCoef="0" IVar="-1" Cut="0.0000000000000000e+00" cType="1" res="-9.9000000000000000e+01" rms="0.0000000000000000e+00" purity="6.0880267620086670e-01" nType="1"/>
              <Node pos="r" depth="4" NCoef="0" IVar="-1" Cut="0.0000000000000000e+00" cType="1" res="-9.9000000000000000e+01" rms="0.0000000000000000e+00" purity="4.7694438695907593e-01" nType="-1"/>
            </Node>
            <Node pos="r" depth="3" NCoef="0" IVar="-1" Cut="0.0000000000000000e+00" cType="1" res="-9.9000000000000000e+01" rms="0.0000000000000000e+00" purity="3.9465990662574768e-01" nType="-1"/>
          </Node>
        </Node>
        <Node pos="r" depth="1" NCoef="0" IVar="-1" Cut="0.0000000000000000e+00" cType="1" res="-9.9000000000000000e+01" rms="0.0000000000000000e+00" purity="3.3025014400482178e-01" nType="-1"/>
      </Node>
    </BinaryTree>
    <BinaryTree type="DecisionTree" boostWeight="1.4366390113483665e-01" itree="11">
      <Node pos="s" depth="0" NCoef="0" IVar="6" Cut="7.0147239603102207e-03" cType="0" res="-9.9000000000000000e+01" rms="0.0000000000000000e+00" purity="5.0912296772003174e-01" nType="0">
        <Node pos="l" depth="1" NCoef="0" IVar="-1" Cut="0.0000000000000000e+00" cType="1" res="-9.9000000000000000e+01" rms="0.0000000000000000e+00" purity="7.0930236577987671e-01" nType="1"/>
        <Node pos="r" depth="1" NCoef="0" IVar="6" Cut="4.7177658416330814e-03" cType="0" res="-9.9000000000000000e+01" rms="0.0000000000000000e+00" purity="4.9544486403465271e-01" nType="0">
          <Node pos="l" depth="2" NCoef="0" IVar="-1" Cut="0.0000000000000000e+00" cType="1" res="-9.9000000000000000e+01" rms="0.0000000000000000e+00" purity="6.8626701831817627e-01" nType="1"/>
          <Node pos="r" depth="2" NCoef="0" IVar="4" Cut="6.0000000000000000e+00" cType="0" res="-9.9000000000000000e+01" rms="0.0000000000000000e+00" purity="4.8079234361648560e-01" nType="0">
            <Node pos="l" depth="3" NCoef="0" IVar="5" Cut="8.0000000000000000e+00" cType="1" res="-9.9000000000000000e+01" rms="0.0000000000000000e+00" purity="5.0864923000335693e-01" nType="0">
              <Node pos="l" depth="4" NCoef="0" IVar="-1" Cut="0.0000000000000000e+00" cType="1" res="-9.9000000000000000e+01" rms="0.0000000000000000e+00" purity="5.2191364765167236e-01" nType="1"/>
              <Node pos="r" depth="4" NCoef="0" IVar="-1" Cut="0.0000000000000000e+00" cType="1" res="-9.9000000000000000e+01" rms="0.0000000000000000e+00" purity="4.1055253148078918e-01" nType="-1"/>
            </Node>
            <Node pos="r" depth="3" NCoef="0" IVar="-1" Cut="0.0000000000000000e+00" cType="1" res="-9.9000000000000000e+01" rms="0.0000000000000000e+00" purity="3.1124338507652283e-01" nType="-1"/>
          </Node>
        </Node>
      </Node>
    </BinaryTree>
    <BinaryTree type="DecisionTree" boostWeight="1.5705180792807974e-01" itree="12">
      <Node pos="s" depth="0" NCoef="0" IVar="2" Cut="9.5230797305703163e-03" cType="1" res="-9.9000000000000000e+01" rms="0.0000000000000000e+00" purity="4.8832279443740845e-01" nType="0">
        <Node pos="l" depth="1" NCoef="0" IVar="2" Cut="4.5347301056608558e-04" cType="0" res="-9.9000000000000000e+01" rms="0.0000000000000000e+00" purity="5.0651830434799194e-01" nType="0">
          <Node pos="l" depth="2" NCoef="0" IVar="2" Cut="2.6128701865673065e-03" cType="1" res="-9.9000000000000000e+01" rms="0.0000000000000000e+00" purity="6.1392194032669067e-01" nType="0">
            <Node pos="l" depth="3" NCoef="0" IVar="-1" Cut="0.0000000000000000e+00" cType="1" res="-9.9000000000000000e+01" rms="0.0000000000000000e+00" purity="8.6077731847763062e-01" nType="1"/>
            <Node pos="r" depth="3" NCoef="0" IVar="-1" Cut="0.0000000000000000e+00" cType="1" res="-9.9000000000000000e+01" rms="0.0000000000000000e+00" purity="4.6189379692077637e-01" nType="-1"/>
          </Node>
          <Node pos="r" depth="2" NCoef="0" IVar="0" Cut="4.7544012777507305e-03" cType="1" res="-9.9000000000000000e+01" rms="0.0000000000000000e+00" purity="4.8650601506233215e-01" nType="0">
            <Node pos="l" depth="3" NCoef="0" IVar="4" Cut="7.0000000000000000e+00" cType="1" res="-9.9000000000000000e+01" rms="0.0000000000000000e+00" purity="5.0807744264602661e-01" nType="0">
              <Node pos="l" depth="4" NCoef="0" IVar="-1" Cut="0.0000000000000000e+00" cType="1" res="-9.9000000000000000e+01" rms="0.0000000000000000e+00" purity="6.3226443529129028e-01" nType="1"/>
              <Node pos="r" depth="4" NCoef="0" IVar="-1" Cut="0.0000000000000000e+00" cType="1" res="-9.9000000000000000e+01" rms="0.0000000000000000e+00" purity="4.7986489534378052e-01" nType="-1"/>
            </Node>
            <Node pos="r" depth="3" NCoef="0" IVar="-1" Cut="0.0000000000000000e+00" cType="1" res="-9.9000000000000000e+01" rms="0.0000000000000000e+00" purity="4.1417351365089417e-01" nType="-1"/>
          </Node>
        </Node>
        <Node pos="r" depth="1" NCoef="0" IVar="-1" Cut="0.0000000000000000e+00" cType="1" res="-9.9000000000000000e+01" rms="0.0000000000000000e+00" purity="3.5112237930297852e-01" nType="-1"/>
      </Node>
    </BinaryTree>
    <BinaryTree type="DecisionTree" boostWeight="1.2794459744377087e-01" itree="13">
      <Node pos="s" depth="0" NCoef="0" IVar="6" Cut="7.0147239603102207e-03" cType="0" res="-9.9000000000000000e+01" rms="0.0000000000000000e+00" purity="5.1523286104202271e-01" nType="0">
        <Node pos="l" depth="1" NCoef="0" IVar="-1" Cut="0.0000000000000000e+00" cType="1" res="-9.9000000000000000e+01" rms="0.0000000000000000e+00" purity="6.9484096765518188e-01" nType="1"/>
        <Node pos="r" depth="1" NCoef="0" IVar="6" Cut="3.7333653308451176e-03" cType="0" res="-9.9000000000000000e+01" rms="0.0000000000000000e+00" purity="5.0313985347747803e-01" nType="0">
          <Node pos="l" depth="2" NCoef="0" IVar="-1" Cut="5.1396596245467663e-03" cType="0" res="-9.9000000000000000e+01" rms="0.0000000000000000e+00" purity="6.3747018575668335e-01" nType="1"/>
          <Node pos="r" depth="2" NCoef="0" IVar="4" Cut="7.0000000000000000e+00" cType="0" res="-9.9000000000000000e+01" rms="0.0000000000000000e+00" purity="4.8514765501022339e-01" nType="0">
            <Node pos="l" depth="3" NCoef="0" IVar="1" Cut="9.5229586586356163e-03" cType="0" res="-9.9000000000000000e+01" rms="0.0000000000000000e+00" purity="5.1811254024505615e-01" nType="0">
              <Node pos="l" depth="4" NCoef="0" IVar="-1" Cut="0.0000000000000000e+00" cType="1" res="-9.9000000000000000e+01" rms="0.0000000000000000e+00" purity="6.5143632888793945e-01" nType="1"/>
              <Node pos="r" depth="4" NCoef="0" IVar="-1" Cut="0.0000000000000000e+00" cType="1" res="-9.9000000000000000e+01" rms="0.0000000000000000e+00" purity="4.9982735514640808e-01" nType="-1"/>
            </Node>
            <Node pos="r" depth="3" NCoef="0" IVar="-1" Cut="0.0000000000000000e+00" cType="1" res="-9.9000000000000000e+01" rms="0.0000000000000000e+00" purity="3.6100080609321594e-01" nType="-1"/>
          </Node>
        </Node>
      </Node>
    </BinaryTree>
    <BinaryTree type="DecisionTree" boostWeight="1.5832958998680835e-01" itree="14">
      <Node pos="s" depth="0" NCoef="0" IVar="1" Cut="1.4284437522292137e-02" cType="1" res="-9.9000000000000000e+01" rms="0.0000000000000000e+00" purity="5.3129929304122925e-01" nType="0">
        <Node pos="l" depth="1" NCoef="0" IVar="2" Cut="9.5230797305703163e-03" cType="1" res="-9.9000000000000000e+01" rms="0.0000000000000000e+00" purity="5.5131256580352783e-01" nType="0">
          <Node pos="l" depth="2" NCoef="0" IVar="2" Cut="4.5347301056608558e-04" cType="0" res="-9.9000000000000000e+01" rms="0.0000000000000000e+00" purity="5.6980735063552856e-01" nType="0">
            <Node pos="l" depth="3" NCoef="0" IVar="2" Cut="3.9085070602595806e-03" cType="1" res="-9.9000000000000000e+01" rms="0.0000000000000000e+00" purity="6.7232251167297363e-01" nType="0">
              <Node pos="l" depth="4" NCoef="0" IVar="-1" Cut="0.0000000000000000e+00" cType="1" res="-9.9000000000000000e+01" rms="0.0000000000000000e+00" purity="8.3860409259796143e-01" nType="1"/>
              <Node pos="r" depth="4" NCoef="0" IVar="-1" Cut="0.0000000000000000e+00" cType="1" res="-9.9000000000000000e+01" rms="0.0000000000000000e+00" purity="4.7829079627990723e-01" nType="-1"/>
            </Node>
            <Node pos="r" depth="3" NCoef="0" IVar="-1" Cut="6.0000000000000000e+00" cType="0" res="-9.9000000000000000e+01" rms="0.0000000000000000e+00" purity="5.5086350440979004e-01" nType="1"/>
          </Node>
          <Node pos="r" depth="2" NCoef="0" IVar="-1" Cut="0.0000000000000000e+00" cType="1" res="-9.9000000000000000e+01" rms="0.0000000000000000e+00" purity="4.0207883715629578e-01" nType="-1"/>
        </Node>
        <Node pos="r" depth="1" NCoef="0" IVar="-1" Cut="0.0000000000000000e+00" cType="1" res="-9.9000000000000000e+01" rms="0.0000000000000000e+00" purity="4.0346515178680420e-01" nType="-1"/>
      </Node>
    </BinaryTree>
    <BinaryTree type="DecisionTree" boostWeight="1.8557056531926988e-01" itree="15">
      <Node pos="s" depth="0" NCoef="0" IVar="3" Cut="3.0000000000000000e+00" cType="0" res="-9.9000000000000000e+01" rms="0.0000000000000000e+00" purity="5.1458030939102173e-01" nType="0">
        <Node pos="l" depth="1" NCoef="0" IVar="6" Cut="7.0147239603102207e-03" cType="0" res="-9.9000000000000000e+01" rms="0.0000000000000000e+00" purity="5.3539973497390747e-01" nType="0">
          <Node pos="l" depth="2" NCoef="0" IVar="-1" Cut="0.0000000000000000e+00" cType="1" res="-9.9000000000000000e+01" rms="0.0000000000000000e+00" purity="7.3981809616088867e-01" nType="1"/>
          <Node pos="r" depth="2" NCoef="0" IVar="6" Cut="2.7489650528877974e-03" cType="0" res="-9.9000000000000000e+01" rms="0.0000000000000000e+00" purity="5.2139210700988770e-01" nType="0">
            <Node pos="l" depth="3" NCoef="0" IVar="-1" Cut="6.0000000000000000e+00" cType="0" res="-9.9000000000000000e+01" rms="0.0000000000000000e+00" purity="6.5070742368698120e-01" nType="1"/>
            <Node pos="r" depth="3" NCoef="0" IVar="1" Cut="9.5229586586356163e-03" cType="0" res="-9.9000000000000000e+01" rms="0.0000000000000000e+00" purity="4.9298226833343506e-01" nType="0">
              <Node pos="l" depth="4" NCoef="0" IVar="-1" Cut="0.0000000000000000e+00" cType="1" res="-9.9000000000000000e+01" rms="0.0000000000000000e+00" purity="5.9987962245941162e-01" nType="1"/>
              <Node pos="r" depth="4" NCoef="0" IVar="-1" Cut="0.0000000000000000e+00" cType="1" res="-9.9000000000000000e+01" rms="0.0000000000000000e+00" purity="4.7851374745368958e-01" nType="-1"/>
            </Node>
          </Node>
        </Node>
        <Node pos="r" depth="1" NCoef="0" IVar="4" Cut="8.0000000000000000e+00" cType="0" res="-9.9000000000000000e+01" rms="0.0000000000000000e+00" purity="4.3897157907485962e-01" nType="0">
          <Node pos="l" depth="2" NCoef="0" IVar="-1" Cut="0.0000000000000000e+00" cType="1" res="-9.9000000000000000e+01" rms="0.0000000000000000e+00" purity="6.9279247522354126e-01" nType="1"/>
          <Node pos="r" depth="2" NCoef="0" IVar="-1" Cut="0.0000000000000000e+00" cType="1" res="-9.9000000000000000e+01" rms="0.0000000000000000e+00" purity="3.1013175845146179e-01" nType="-1"/>
        </Node>
      </Node>
    </BinaryTree>
    <BinaryTree type="DecisionTree" boostWeight="1.2298957862853357e-01" itree="16">
      <Node pos="s" depth="0" NCoef="0" IVar="0" Cut="4.7602406702935696e-03" cType="1" res="-9.9000000000000000e+01" rms="0.0000000000000000e+00" purity="5.3112596273422241e-01" nType="0">
        <Node pos="l" depth="1" NCoef="0" IVar="4" Cut="7.0000000000000000e+00" cType="1" res="-9.9000000000000000e+01" rms="0.0000000000000000e+00" purity="5.5698448419570923e-01" nType="0">
          <Node pos="l" depth="2" NCoef="0" IVar="-1" Cut="4.5264157652854919e-01" cType="1" res="-9.9000000000000000e+01" rms="0.0000000000000000e+00" purity="6.1760133504867554e-01" nType="1"/>
          <Node pos="r" depth="2" NCoef="0" IVar="6" Cut="1.6186363063752651e-03" cType="0" res="-9.9000000000000000e+01" rms="0.0000000000000000e+00" purity="5.4360866546630859e-01" nType="0">
            <Node pos="l" depth="3" NCoef="0" IVar="-1" Cut="7.0000000000000000e+00" cType="1" res="-9.9000000000000000e+01" rms="0.0000000000000000e+00" purity="6.2384575605392456e-01" nType="1"/>
            <Node pos="r" depth="3" NCoef="0" IVar="4" Cut="1.2000000000000000e+01" cType="0" res="-9.9000000000000000e+01" rms="0.0000000000000000e+00" purity="5.2601391077041626e-01" nType="0">
              <Node pos="l" depth="4" NCoef="0" IVar="-1" Cut="0.0000000000000000e+00" cType="1" res="-9.9000000000000000e+01" rms="0.0000000000000000e+00" purity="5.6879246234893799e-01" nType="1"/>
              <Node pos="r" depth="4" NCoef="0" IVar="-1" Cut="0.0000000000000000e+00" cType="1" res="-9.9000000000000000e+01" rms="0.0000000000000000e+00" purity="4.8617425560951233e-01" nType="-1"/>
            </Node>
          </Node>
        </Node>
        <Node pos="r" depth="1" NCoef="0" IVar="-1" Cut="0.0000000000000000e+00" cType="1" res="-9.9000000000000000e+01" rms="0.0000000000000000e+00" purity="4.5480400323867798e-01" nType="-1"/>
      </Node>
    </BinaryTree>
    <BinaryTree type="DecisionTree" boostWeight="1.5486146250915211e-01" itree="17">
      <Node pos="s" depth="0" NCoef="0" IVar="1" Cut="9.5229586586356163e-03" cType="1" res="-9.9000000000000000e+01" rms="0.0000000000000000e+00" purity="5.3216129541397095e-01" nType="0">
        <Node pos="l" depth="1" NCoef="0" IVar="5" Cut="6.0000000000000000e+00" cType="0" res="-9.9000000000000000e+01" rms="0.0000000000000000e+00" purity="5.5191963911056519e-01" nType="0">
          <Node pos="l" depth="2" NCoef="0" IVar="-1" Cut="9.0000000000000000e+00" cType="1" res="-9.9000000000000000e+01" rms="0.0000000000000000e+00" purity="5.8149987459182739e-01" nType="1"/>
          <Node pos="r" depth="2" NCoef="0" IVar="1" Cut="3.6277787294238806e-03" cType="0" res="-9.9000000000000000e+01" rms="0.0000000000000000e+00" purity="5.2580642700195312e-01" nType="0">
            <Node pos="l" depth="3" NCoef="0" IVar="-1" Cut="1.1000000000000000e+01" cType="0" res="-9.9000000000000000e+01" rms="0.0000000000000000e+00" purity="5.7839453220367432e-01" nType="1"/>
            <Node pos="r" depth="3" NCoef="0" IVar="4" Cut="1.0000000000000000e+01" cType="0" res="-9.9000000000000000e+01" rms="0.0000000000000000e+00" purity="5.0160306692123413e-01" nType="0">
              <Node pos="l" depth="4" NCoef="0" IVar="-1" Cut="0.0000000000000000e+00" cType="1" res="-9.9000000000000000e+01" rms="0.0000000000000000e+00" purity="5.1554745435714722e-01" nType="1"/>
              <Node pos="r" depth="4" NCoef="0" IVar="-1" Cut="0.0000000000000000e+00" cType="1" res="-9.9000000000000000e+01" rms="0.0000000000000000e+00" purity="4.5869922637939453e-01" nType="-1"/>
            </Node>
          </Node>
        </Node>
        <Node pos="r" depth="1" NCoef="0" IVar="4" Cut="8.0000000000000000e+00" cType="0" res="-9.9000000000000000e+01" rms="0.0000000000000000e+00" purity="4.5520159602165222e-01" nType="0">
          <Node pos="l" depth="2" NCoef="0" IVar="-1" Cut="0.0000000000000000e+00" cType="1" res="-9.9000000000000000e+01" rms="0.0000000000000000e+00" purity="6.5694427490234375e-01" nType="1"/>
          <Node pos="r" depth="2" NCoef="0" IVar="-1" Cut="0.0000000000000000e+00" cType="1" res="-9.9000000000000000e+01" rms="0.0000000000000000e+00" purity="3.6047351360321045e-01" nType="-1"/>
        </Node>
      </Node>
    </BinaryTree>
    <BinaryTree type="DecisionTree" boostWeight="1.2489470630644223e-01" itree="18">
      <Node pos="s" depth="0" NCoef="0" IVar="6" Cut="7.0147239603102207e-03" cType="0" res="-9.9000000000000000e+01" rms="0.0000000000000000e+00" purity="5.0986880064010620e-01" nType="0">
        <Node pos="l" depth="1" NCoef="0" IVar="-1" Cut="0.0000000000000000e+00" cType="1" res="-9.9000000000000000e+01" rms="0.0000000000000000e+00" purity="6.4869701862335205e-01" nType="1"/>
        <Node pos="r" depth="1" NCoef="0" IVar="4" Cut="6.0000000000000000e+00" cType="0" res="-9.9000000000000000e+01" rms="0.0000000000000000e+00" purity="5.0116491317749023e-01" nType="0">
          <Node pos="l" depth="2" NCoef="0" IVar="6" Cut="3.4052273258566856e-03" cType="0" res="-9.9000000000000000e+01" rms="0.0000000000000000e+00" purity="5.2213674783706665e-01" nType="0">
            <Node pos="l" depth="3" NCoef="0" IVar="-1" Cut="0.0000000000000000e+00" cType="1" res="-9.9000000000000000e+01" rms="0.0000000000000000e+00" purity="6.6795021295547485e-01" nType="1"/>
            <Node pos="r" depth="3" NCoef="0" IVar="6" Cut="5.9265451272949576e-04" cType="0" res="-9.9000000000000000e+01" rms="0.0000000000000000e+00" purity="5.0998133420944214e-01" nType="0">
              <Node pos="l" depth="4" NCoef="0" IVar="-1" Cut="0.0000000000000000e+00" cType="1" res="-9.9000000000000000e+01" rms="0.0000000000000000e+00" purity="5.3344327211380005e-01" nType="1"/>
              <Node pos="r" depth="4" NCoef="0" IVar="-1" Cut="0.0000000000000000e+00" cType="1" res="-9.9000000000000000e+01" rms="0.0000000000000000e+00" purity="4.5513501763343811e-01" nType="-1"/>
            </Node>
          </Node>
          <Node pos="r" depth="2" NCoef="0" IVar="-1" Cut="0.0000000000000000e+00" cType="1" res="-9.9000000000000000e+01" rms="0.0000000000000000e+00" purity="3.9307969808578491e-01" nType="-1"/>
        </Node>
      </Node>
    </BinaryTree>
    <BinaryTree type="DecisionTree" boostWeight="1.3226266650960947e-01" itree="19">
      <Node pos="s" depth="0" NCoef="0" IVar="3" Cut="3.0000000000000000e+00" cType="0" res="-9.9000000000000000e+01" rms="0.0000000000000000e+00" purity="5.0182926654815674e-01" nType="0">
        <Node pos="l" depth="1" NCoef="0" IVar="2" Cut="9.5230797305703163e-03" cType="1" res="-9.9000000000000000e+01" rms="0.0000000000000000e+00" purity="5.1944959163665771e-01" nType="0">
          <Node pos="l" depth="2" NCoef="0" IVar="2" Cut="4.5347301056608558e-04" cType="0" res="-9.9000000000000000e+01" rms="0.0000000000000000e+00" purity="5.3035396337509155e-01" nType="0">
            <Node pos="l" depth="3" NCoef="0" IVar="-1" Cut="3.9085070602595806e-03" cType="1" res="-9.9000000000000000e+01" rms="0.0000000000000000e+00" purity="6.7706137895584106e-01" nType="1"/>
            <Node pos="r" depth="3" NCoef="0" IVar="0" Cut="4.7544012777507305e-03" cType="0" res="-9.9000000000000000e+01" rms="0.0000000000000000e+00" purity="5.0459486246109009e-01" nType="0">
              <Node pos="l" depth="4" NCoef="0" IVar="-1" Cut="0.0000000000000000e+00" cType="1" res="-9.9000000000000000e+01" rms="0.0000000000000000e+00" purity="5.6576657295227051e-01" nType="1"/>
              <Node pos="r" depth="4" NCoef="0" IVar="-1" Cut="0.0000000000000000e+00" cType="1" res="-9.9000000000000000e+01" rms="0.0000000000000000e+00" purity="4.9123647809028625e-01" nType="-1"/>
            </Node>
          </Node>
          <Node pos="r" depth="2" NCoef="0" IVar="-1" Cut="0.0000000000000000e+00" cType="1" res="-9.9000000000000000e+01" rms="0.0000000000000000e+00" purity="4.4031712412834167e-01" nType="-1"/>
        </Node>
        <Node pos="r" depth="1" NCoef="0" IVar="4" Cut="8.0000000000000000e+00" cType="0" res="-9.9000000000000000e+01" rms="0.0000000000000000e+00" purity="4.3483033776283264e-01" nType="0">
          <Node pos="l" depth="2" NCoef="0" IVar="-1" Cut="0.0000000000000000e+00" cType="1" res="-9.9000000000000000e+01" rms="0.0000000000000000e+00" purity="6.1917388439178467e-01" nType="1"/>
          <Node pos="r" depth="2" NCoef="0" IVar="-1" Cut="0.0000000000000000e+00" cType="1" res="-9.9000000000000000e+01" rms="0.0000000000000000e+00" purity="3.4035733342170715e-01" nType="-1"/>
        </Node>
      </Node>
    </BinaryTree>
    <BinaryTree type="DecisionTree" boostWeight="1.1691838363237712e-01" itree="20">
      <Node pos="s" depth="0" NCoef="0" IVar="3" Cut="3.0000000000000000e+00" cType="0" res="-9.9000000000000000e+01" rms="0.0000000000000000e+00" purity="5.1646113395690918e-01" nType="0">
        <Node pos="l" depth="1" NCoef="0" IVar="2" Cut="9.5230797305703163e-03" cType="1" res="-9.9000000000000000e+01" rms="0.0000000000000000e+00" purity="5.3515750169754028e-01" nType="0">
          <Node pos="l" depth="2" NCoef="0" IVar="2" Cut="4.5347301056608558e-04" cType="0" res="-9.9000000000000000e+01" rms="0.0000000000000000e+00" purity="5.4368638992309570e-01" nType="0">
            <Node pos="l" depth="3" NCoef="0" IVar="2" Cut="3.9085070602595806e-03" cType="1" res="-9.9000000000000000e+01" rms="0.0000000000000000e+00" purity="6.4749288558959961e-01" nType="0">
              <Node pos="l" depth="4" NCoef="0" IVar="-1" Cut="0.0000000000000000e+00" cType="1" res="-9.9000000000000000e+01" rms="0.0000000000000000e+00" purity="8.0539160966873169e-01" nType="1"/>
              <Node pos="r" depth="4" NCoef="0" IVar="-1" Cut="0.0000000000000000e+00" cType="1" res="-9.9000000000000000e+01" rms="0.0000000000000000e+00" purity="4.8638081550598145e-01" nType="-1"/>
            </Node>
            <Node pos="r" depth="3" NCoef="0" IVar="5" Cut="8.0000000000000000e+00" cType="1" res="-9.9000000000000000e+01" rms="0.0000000000000000e+00" purity="5.2584141492843628e-01" nType="0">
              <Node pos="l" depth="4" NCoef="0" IVar="-1" Cut="0.0000000000000000e+00" cType="1" res="-9.9000000000000000e+01" rms="0.0000000000000000e+00" purity="5.3234332799911499e-01" nType="1"/>
              <Node pos="r" depth="4" NCoef="0" IVar="-1" Cut="0.0000000000000000e+00" cType="1" res="-9.9000000000000000e+01" rms="0.0000000000000000e+00" purity="4.9990633130073547e-01" nType="-1"/>
            </Node>
          </Node>
          <Node pos="r" depth="2" NCoef="0" IVar="-1" Cut="0.0000000000000000e+00" cType="1" res="-9.9000000000000000e+01" rms="0.0000000000000000e+00" purity="4.7312280535697937e-01" nType="-1"/>
        </Node>
        <Node pos="r" depth="1" NCoef="0" IVar="4" Cut="8.0000000000000000e+00" cType="0" res="-9.9000000000000000e+01" rms="0.0000000000000000e+00" purity="4.4440129399299622e-01" nType="0">
          <Node pos="l" depth="2" NCoef="0" IVar="-1" Cut="0.0000000000000000e+00" cType="1" res="-9.9000000000000000e+01" rms="0.0000000000000000e+00" purity="5.8753407001495361e-01" nType="1"/>
          <Node pos="r" depth="2" NCoef="0" IVar="-1" Cut="0.0000000000000000e+00" cType="1" res="-9.9000000000000000e+01" rms="0.0000000000000000e+00" purity="3.7064760923385620e-01" nType="-1"/>
        </Node>
      </Node>
    </BinaryTree>
    <BinaryTree type="DecisionTree" boostWeight="9.2110938483845481e-02" itree="21">
      <Node pos="s" depth="0" NCoef="0" IVar="6" Cut="7.0147239603102207e-03" cType="0" res="-9.9000000000000000e+01" rms="0.0000000000000000e+00" purity="5.1081186532974243e-01" nType="0">
        <Node pos="l" depth="1" NCoef="0" IVar="-1" Cut="0.0000000000000000e+00" cType="1" res="-9.9000000000000000e+01" rms="0.0000000000000000e+00" purity="6.3713669776916504e-01" nType="1"/>
        <Node pos="r" depth="1" NCoef="0" IVar="6" Cut="4.7177658416330814e-03" cType="0" res="-9.9000000000000000e+01" rms="0.0000000000000000e+00" purity="5.0285685062408447e-01" nType="0">
          <Node pos="l" depth="2" NCoef="0" IVar="-1" Cut="0.0000000000000000e+00" cType="1" res="-9.9000000000000000e+01" rms="0.0000000000000000e+00" purity="6.4130014181137085e-01" nType="1"/>
          <Node pos="r" depth="2" NCoef="0" IVar="4" Cut="6.0000000000000000e+00" cType="0" res="-9.9000000000000000e+01" rms="0.0000000000000000e+00" purity="4.9275493621826172e-01" nType="0">
            <Node pos="l" depth="3" NCoef="0" IVar="6" Cut="7.8016304178163409e-04" cType="0" res="-9.9000000000000000e+01" rms="0.0000000000000000e+00" purity="5.0536906719207764e-01" nType="0">
              <Node pos="l" depth="4" NCoef="0" IVar="-1" Cut="0.0000000000000000e+00" cType="1" res="-9.9000000000000000e+01" rms="0.0000000000000000e+00" purity="5.2488148212432861e-01" nType="1"/>
              <Node pos="r" depth="4" NCoef="0" IVar="-1" Cut="0.0000000000000000e+00" cType="1" res="-9.9000000000000000e+01" rms="0.0000000000000000e+00" purity="4.7722265124320984e-01" nType="-1"/>
            </Node>
            <Node pos="r" depth="3" NCoef="0" IVar="-1" Cut="0.0000000000000000e+00" cType="1" res="-9.9000000000000000e+01" rms="0.0000000000000000e+00" purity="4.0859124064445496e-01" nType="-1"/>
          </Node>
        </Node>
      </Node>
    </BinaryTree>
    <BinaryTree type="DecisionTree" boostWeight="1.1718882709488859e-01" itree="22">
      <Node pos="s" depth="0" NCoef="0" IVar="3" Cut="3.0000000000000000e+00" cType="0" res="-9.9000000000000000e+01" rms="0.0000000000000000e+00" purity="5.0745898485183716e-01" nType="0">
        <Node pos="l" depth="1" NCoef="0" IVar="4" Cut="8.0000000000000000e+00" cType="1" res="-9.9000000000000000e+01" rms="0.0000000000000000e+00" purity="5.2327859401702881e-01" nType="0">
          <Node pos="l" depth="2" NCoef="0" IVar="0" Cut="4.7602406702935696e-03" cType="1" res="-9.9000000000000000e+01" rms="0.0000000000000000e+00" purity="5.5618870258331299e-01" nType="0">
            <Node pos="l" depth="3" NCoef="0" IVar="7" Cut="7.8914535045623779e-01" cType="1" res="-9.9000000000000000e+01" rms="0.0000000000000000e+00" purity="5.8049607276916504e-01" nType="0">
              <Node pos="l" depth="4" NCoef="0" IVar="-1" Cut="0.0000000000000000e+00" cType="1" res="-9.9000000000000000e+01" rms="0.0000000000000000e+00" purity="6.6606599092483521e-01" nType="1"/>
              <Node pos="r" depth="4" NCoef="0" IVar="-1" Cut="0.0000000000000000e+00" cType="1" res="-9.9000000000000000e+01" rms="0.0000000000000000e+00" purity="4.3088960647583008e-01" nType="-1"/>
            </Node>
            <Node pos="r" depth="3" NCoef="0" IVar="-1" Cut="0.0000000000000000e+00" cType="1" res="-9.9000000000000000e+01" rms="0.0000000000000000e+00" purity="5.2603518962860107e-01" nType="1"/>
          </Node>
          <Node pos="r" depth="2" NCoef="0" IVar="1" Cut="4.7614793293178082e-03" cType="0" res="-9.9000000000000000e+01" rms="0.0000000000000000e+00" purity="5.0589990615844727e-01" nType="0">
            <Node pos="l" depth="3" NCoef="0" IVar="-1" Cut="1.2000000000000000e+01" cType="1" res="-9.9000000000000000e+01" rms="0.0000000000000000e+00" purity="5.4919332265853882e-01" nType="1"/>
            <Node pos="r" depth="3" NCoef="0" IVar="1" Cut="3.6277910694479942e-03" cType="0" res="-9.9000000000000000e+01" rms="0.0000000000000000e+00" purity="4.8955389857292175e-01" nType="0">
              <Node pos="l" depth="4" NCoef="0" IVar="-1" Cut="0.0000000000000000e+00" cType="1" res="-9.9000000000000000e+01" rms="0.0000000000000000e+00" purity="5.5466055870056152e-01" nType="1"/>
              <Node pos="r" depth="4" NCoef="0" IVar="-1" Cut="0.0000000000000000e+00" cType="1" res="-9.9000000000000000e+01" rms="0.0000000000000000e+00" purity="4.7948962450027466e-01" nType="-1"/>
            </Node>
          </Node>
        </Node>
        <Node pos="r" depth="1" NCoef="0" IVar="1" Cut="4.7609093599021435e-03" cType="1" res="-9.9000000000000000e+01" rms="0.0000000000000000e+00" purity="4.4605565071105957e-01" nType="0">
          <Node pos="l" depth="2" NCoef="0" IVar="-1" Cut="0.0000000000000000e+00" cType="1" res="-9.9000000000000000e+01" rms="0.0000000000000000e+00" purity="5.4050624370574951e-01" nType="1"/>
          <Node pos="r" depth="2" NCoef="0" IVar="-1" Cut="0.0000000000000000e+00" cType="1" res="-9.9000000000000000e+01" rms="0.0000000000000000e+00" purity="3.6440321803092957e-01" nType="-1"/>
        </Node>
      </Node>
    </BinaryTree>
    <BinaryTree type="DecisionTree" boostWeight="8.5852361542359701e-02" itree="23">
      <Node pos="s" depth="0" NCoef="0" IVar="0" Cut="4.7602406702935696e-03" cType="1" res="-9.9000000000000000e+01" rms="0.0000000000000000e+00" purity="5.0706207752227783e-01" nType="0">
        <Node pos="l" depth="1" NCoef="0" IVar="4" Cut="7.0000000000000000e+00" cType="1" res="-9.9000000000000000e+01" rms="0.0000000000000000e+00" purity="5.2443468570709229e-01" nType="0">
          <Node pos="l" depth="2" NCoef="0" IVar="-1" Cut="4.5264157652854919e-01" cType="1" res="-9.9000000000000000e+01" rms="0.0000000000000000e+00" purity="6.0615706443786621e-01" nType="1"/>
          <Node pos="r" depth="2" NCoef="0" IVar="0" Cut="3.1734900549054146e-03" cType="1" res="-9.9000000000000000e+01" rms="0.0000000000000000e+00" purity="5.0675308704376221e-01" nType="0">
            <Node pos="l" depth="3" NCoef="0" IVar="4" Cut="1.0000000000000000e+01" cType="0" res="-9.9000000000000000e+01" rms="0.0000000000000000e+00" purity="5.1289963722229004e-01" nType="0">
              <Node pos="l" depth="4" NCoef="0" IVar="-1" Cut="0.0000000000000000e+00" cType="1" res="-9.9000000000000000e+01" rms="0.0000000000000000e+00" purity="5.3060400485992432e-01" nType="1"/>
              <Node pos="r" depth="4" NCoef="0" IVar="-1" Cut="0.0000000000000000e+00" cType="1" res="-9.9000000000000000e+01" rms="0.0000000000000000e+00" purity="4.8417067527770996e-01" nType="-1"/>
            </Node>
            <Node pos="r" depth="3" NCoef="0" IVar="-1" Cut="0.0000000000000000e+00" cType="1" res="-9.9000000000000000e+01" rms="0.0000000000000000e+00" purity="4.4138494133949280e-01" nType="-1"/>
          </Node>
        </Node>
        <Node pos="r" depth="1" NCoef="0" IVar="-1" Cut="0.0000000000000000e+00" cType="1" res="-9.9000000000000000e+01" rms="0.0000000000000000e+00" purity="4.5402869582176208e-01" nType="-1"/>
      </Node>
    </BinaryTree>
    <BinaryTree type="DecisionTree" boostWeight="8.1345276536304134e-02" itree="24">
      <Node pos="s" depth="0" NCoef="0" IVar="3" Cut="3.0000000000000000e+00" cType="0" res="-9.9000000000000000e+01" rms="0.0000000000000000e+00" purity="5.0776833295822144e-01" nType="0">
        <Node pos="l" depth="1" NCoef="0" IVar="4" Cut="1.0000000000000000e+01" cType="1" res="-9.9000000000000000e+01" rms="0.0000000000000000e+00" purity="5.2183598279953003e-01" nType="0">
          <Node pos="l" depth="2" NCoef="0" IVar="-1" Cut="6.0000000000000000e+00" cType="0" res="-9.9000000000000000e+01" rms="0.0000000000000000e+00" purity="5.4047036170959473e-01" nType="1"/>
          <Node pos="r" depth="2" NCoef="0" IVar="3" Cut="4.0000000000000000e+00" cType="1" res="-9.9000000000000000e+01" rms="0.0000000000000000e+00" purity="4.9998304247856140e-01" nType="0">
            <Node pos="l" depth="3" NCoef="0" IVar="6" Cut="8.2126131746917963e-04" cType="0" res="-9.9000000000000000e+01" rms="0.0000000000000000e+00" purity="5.0501120090484619e-01" nType="0">
              <Node pos="l" depth="4" NCoef="0" IVar="-1" Cut="0.0000000000000000e+00" cType="1" res="-9.9000000000000000e+01" rms="0.0000000000000000e+00" purity="5.2872914075851440e-01" nType="1"/>
              <Node pos="r" depth="4" NCoef="0" IVar="-1" Cut="0.0000000000000000e+00" cType="1" res="-9.9000000000000000e+01" rms="0.0000000000000000e+00" purity="4.9407473206520081e-01" nType="-1"/>
            </Node>
            <Node pos="r" depth="3" NCoef="0" IVar="-1" Cut="0.0000000000000000e+00" cType="1" res="-9.9000000000000000e+01" rms="0.0000000000000000e+00" purity="4.8204353451728821e-01" nType="-1"/>
          </Node>
        </Node>
        <Node pos="r" depth="1" NCoef="0" IVar="4" Cut="9.0000000000000000e+00" cType="0" res="-9.9000000000000000e+01" rms="0.0000000000000000e+00" purity="4.5251867175102234e-01" nType="0">
          <Node pos="l" depth="2" NCoef="0" IVar="-1" Cut="0.0000000000000000e+00" cType="1" res="-9.9000000000000000e+01" rms="0.0000000000000000e+00" purity="5.8114618062973022e-01" nType="1"/>
          <Node pos="r" depth="2" NCoef="0" IVar="-1" Cut="0.0000000000000000e+00" cType="1" res="-9.9000000000000000e+01" rms="0.0000000000000000e+00" purity="4.0894386172294617e-01" nType="-1"/>
        </Node>
      </Node>
    </BinaryTree>
    <BinaryTree type="DecisionTree" boostWeight="6.7744653001181390e-02" itree="25">
      <Node pos="s" depth="0" NCoef="0" IVar="6" Cut="7.0147239603102207e-03" cType="0" res="-9.9000000000000000e+01" rms="0.0000000000000000e+00" purity="5.0485795736312866e-01" nType="0">
        <Node pos="l" depth="1" NCoef="0" IVar="-1" Cut="0.0000000000000000e+00" cType="1" res="-9.9000000000000000e+01" rms="0.0000000000000000e+00" purity="5.9720718860626221e-01" nType="1"/>
        <Node pos="r" depth="1" NCoef="0" IVar="6" Cut="5.0458991900086403e-03" cType="0" res="-9.9000000000000000e+01" rms="0.0000000000000000e+00" purity="4.9921736121177673e-01" nType="0">
          <Node pos="l" depth="2" NCoef="0" IVar="-1" Cut="0.0000000000000000e+00" cType="1" res="-9.9000000000000000e+01" rms="0.0000000000000000e+00" purity="6.1697614192962646e-01" nType="1"/>
          <Node pos="r" depth="2" NCoef="0" IVar="4" Cut="7.0000000000000000e+00" cType="0" res="-9.9000000000000000e+01" rms="0.0000000000000000e+00" purity="4.9235969781875610e-01" nType="0">
            <Node pos="l" depth="3" NCoef="0" IVar="-1" Cut="2.4677054025232792e-03" cType="0" res="-9.9000000000000000e+01" rms="0.0000000000000000e+00" purity="5.1032447814941406e-01" nType="1"/>
            <Node pos="r" depth="3" NCoef="0" IVar="1" Cut="4.7609298489987850e-03" cType="1" res="-9.9000000000000000e+01" rms="0.0000000000000000e+00" purity="4.3114802241325378e-01" nType="0">
              <Node pos="l" depth="4" NCoef="0" IVar="-1" Cut="0.0000000000000000e+00" cType="1" res="-9.9000000000000000e+01" rms="0.0000000000000000e+00" purity="5.0667941570281982e-01" nType="1"/>
              <Node pos="r" depth="4" NCoef="0" IVar="-1" Cut="0.0000000000000000e+00" cType="1" res="-9.9000000000000000e+01" rms="0.0000000000000000e+00" purity="3.7616899609565735e-01" nType="-1"/>
            </Node>
          </Node>
        </Node>
      </Node>
    </BinaryTree>
    <BinaryTree type="DecisionTree" boostWeight="7.7655424055447522e-02" itree="26">
      <Node pos="s" depth="0" NCoef="0" IVar="6" Cut="7.0147239603102207e-03" cType="0" res="-9.9000000000000000e+01" rms="0.0000000000000000e+00" purity="4.9186933040618896e-01" nType="0">
        <Node pos="l" depth="1" NCoef="0" IVar="-1" Cut="0.0000000000000000e+00" cType="1" res="-9.9000000000000000e+01" rms="0.0000000000000000e+00" purity="5.8080947399139404e-01" nType="1"/>
        <Node pos="r" depth="1" NCoef="0" IVar="6" Cut="3.0770986340939999e-03" cType="0" res="-9.9000000000000000e+01" rms="0.0000000000000000e+00" purity="4.8646175861358643e-01" nType="0">
          <Node pos="l" depth="2" NCoef="0" IVar="4" Cut="6.0000000000000000e+00" cType="0" res="-9.9000000000000000e+01" rms="0.0000000000000000e+00" purity="5.5596458911895752e-01" nType="0">
            <Node pos="l" depth="3" NCoef="0" IVar="-1" Cut="0.0000000000000000e+00" cType="1" res="-9.9000000000000000e+01" rms="0.0000000000000000e+00" purity="6.1753004789352417e-01" nType="1"/>
            <Node pos="r" depth="3" NCoef="0" IVar="-1" Cut="0.0000000000000000e+00" cType="1" res="-9.9000000000000000e+01" rms="0.0000000000000000e+00" purity="4.9708953499794006e-01" nType="-1"/>
          </Node>
          <Node pos="r" depth="2" NCoef="0" IVar="4" Cut="9.0000000000000000e+00" cType="0" res="-9.9000000000000000e+01" rms="0.0000000000000000e+00" purity="4.7364142537117004e-01" nType="0">
            <Node pos="l" depth="3" NCoef="0" IVar="3" Cut="3.0000000000000000e+00" cType="1" res="-9.9000000000000000e+01" rms="0.0000000000000000e+00" purity="4.9980586767196655e-01" nType="0">
              <Node pos="l" depth="4" NCoef="0" IVar="-1" Cut="0.0000000000000000e+00" cType="1" res="-9.9000000000000000e+01" rms="0.0000000000000000e+00" purity="5.4464024305343628e-01" nType="1"/>
              <Node pos="r" depth="4" NCoef="0" IVar="-1" Cut="0.0000000000000000e+00" cType="1" res="-9.9000000000000000e+01" rms="0.0000000000000000e+00" purity="4.9470916390419006e-01" nType="-1"/>
            </Node>
            <Node pos="r" depth="3" NCoef="0" IVar="-1" Cut="2.2541093640029430e-03" cType="0" res="-9.9000000000000000e+01" rms="0.0000000000000000e+00" purity="4.3119308352470398e-01" nType="-1"/>
          </Node>
        </Node>
      </Node>
    </BinaryTree>
    <BinaryTree type="DecisionTree" boostWeight="6.0352420367757634e-02" itree="27">
      <Node pos="s" depth="0" NCoef="0" IVar="3" Cut="3.0000000000000000e+00" cType="0" res="-9.9000000000000000e+01" rms="0.0000000000000000e+00" purity="5.0432664155960083e-01" nType="0">
        <Node pos="l" depth="1" NCoef="0" IVar="2" Cut="9.5230797305703163e-03" cType="1" res="-9.9000000000000000e+01" rms="0.0000000000000000e+00" purity="5.1654750108718872e-01" nType="0">
          <Node pos="l" depth="2" NCoef="0" IVar="2" Cut="4.5347301056608558e-04" cType="0" res="-9.9000000000000000e+01" rms="0.0000000000000000e+00" purity="5.2136087417602539e-01" nType="0">
            <Node pos="l" depth="3" NCoef="0" IVar="-1" Cut="3.9085070602595806e-03" cType="1" res="-9.9000000000000000e+01" rms="0.0000000000000000e+00" purity="6.4539593458175659e-01" nType="1"/>
            <Node pos="r" depth="3" NCoef="0" IVar="4" Cut="7.0000000000000000e+00" cType="1" res="-9.9000000000000000e+01" rms="0.0000000000000000e+00" purity="5.0069612264633179e-01" nType="0">
              <Node pos="l" depth="4" NCoef="0" IVar="-1" Cut="0.0000000000000000e+00" cType="1" res="-9.9000000000000000e+01" rms="0.0000000000000000e+00" purity="5.1095688343048096e-01" nType="1"/>
              <Node pos="r" depth="4" NCoef="0" IVar="-1" Cut="0.0000000000000000e+00" cType="1" res="-9.9000000000000000e+01" rms="0.0000000000000000e+00" purity="4.9784469604492188e-01" nType="-1"/>
            </Node>
          </Node>
          <Node pos="r" depth="2" NCoef="0" IVar="-1" Cut="0.0000000000000000e+00" cType="1" res="-9.9000000000000000e+01" rms="0.0000000000000000e+00" purity="4.8129197955131531e-01" nType="-1"/>
        </Node>
        <Node pos="r" depth="1" NCoef="0" IVar="4" Cut="8.0000000000000000e+00" cType="0" res="-9.9000000000000000e+01" rms="0.0000000000000000e+00" purity="4.5578062534332275e-01" nType="0">
          <Node pos="l" depth="2" NCoef="0" IVar="-1" Cut="0.0000000000000000e+00" cType="1" res="-9.9000000000000000e+01" rms="0.0000000000000000e+00" purity="5.1715964078903198e-01" nType="1"/>
          <Node pos="r" depth="2" NCoef="0" IVar="-1" Cut="0.0000000000000000e+00" cType="1" res="-9.9000000000000000e+01" rms="0.0000000000000000e+00" purity="4.2298036813735962e-01" nType="-1"/>
        </Node>
      </Node>
    </BinaryTree>
    <BinaryTree type="DecisionTree" boostWeight="6.0150893821209403e-02" itree="28">
      <Node pos="s" depth="0" NCoef="0" IVar="3" Cut="3.0000000000000000e+00" cType="0" res="-9.9000000000000000e+01" rms="0.0000000000000000e+00" purity="5.1033496856689453e-01" nType="0">
        <Node pos="l" depth="1" NCoef="0" IVar="2" Cut="9.5230797305703163e-03" cType="1" res="-9.9000000000000000e+01" rms="0.0000000000000000e+00" purity="5.2292525768280029e-01" nType="0">
          <Node pos="l" depth="2" NCoef="0" IVar="2" Cut="4.5347301056608558e-04" cType="0" res="-9.9000000000000000e+01" rms="0.0000000000000000e+00" purity="5.2655178308486938e-01" nType="0">
            <Node pos="l" depth="3" NCoef="0" IVar="-1" Cut="0.0000000000000000e+00" cType="1" res="-9.9000000000000000e+01" rms="0.0000000000000000e+00" purity="6.3146567344665527e-01" nType="1"/>
            <Node pos="r" depth="3" NCoef="0" IVar="4" Cut="6.0000000000000000e+00" cType="0" res="-9.9000000000000000e+01" rms="0.0000000000000000e+00" purity="5.0922179222106934e-01" nType="0">
              <Node pos="l" depth="4" NCoef="0" IVar="-1" Cut="0.0000000000000000e+00" cType="1" res="-9.9000000000000000e+01" rms="0.0000000000000000e+00" purity="5.1355421543121338e-01" nType="1"/>
              <Node pos="r" depth="4" NCoef="0" IVar="-1" Cut="0.0000000000000000e+00" cType="1" res="-9.9000000000000000e+01" rms="0.0000000000000000e+00" purity="4.8897010087966919e-01" nType="-1"/>
            </Node>
          </Node>
          <Node pos="r" depth="2" NCoef="0" IVar="-1" Cut="0.0000000000000000e+00" cType="1" res="-9.9000000000000000e+01" rms="0.0000000000000000e+00" purity="4.9637138843536377e-01" nType="-1"/>
        </Node>
        <Node pos="r" depth="1" NCoef="0" IVar="1" Cut="4.7609093599021435e-03" cType="1" res="-9.9000000000000000e+01" rms="0.0000000000000000e+00" purity="4.6022292971611023e-01" nType="0">
          <Node pos="l" depth="2" NCoef="0" IVar="-1" Cut="0.0000000000000000e+00" cType="1" res="-9.9000000000000000e+01" rms="0.0000000000000000e+00" purity="5.0359702110290527e-01" nType="1"/>
          <Node pos="r" depth="2" NCoef="0" IVar="-1" Cut="0.0000000000000000e+00" cType="1" res="-9.9000000000000000e+01" rms="0.0000000000000000e+00" purity="4.2086732387542725e-01" nType="-1"/>
        </Node>
      </Node>
    </BinaryTree>
    <BinaryTree type="DecisionTree" boostWeight="6.2386024341998476e-02" itree="29">
      <Node pos="s" depth="0" NCoef="0" IVar="3" Cut="3.0000000000000000e+00" cType="0" res="-9.9000000000000000e+01" rms="0.0000000000000000e+00" purity="5.0456029176712036e-01" nType="0">
        <Node pos="l" depth="1" NCoef="0" IVar="0" Cut="4.7602406702935696e-03" cType="0" res="-9.9000000000000000e+01" rms="0.0000000000000000e+00" purity="5.1553088426589966e-01" nType="0">
          <Node pos="l" depth="2" NCoef="0" IVar="-1" Cut="0.0000000000000000e+00" cType="1" res="-9.9000000000000000e+01" rms="0.0000000000000000e+00" purity="5.3210192918777466e-01" nType="1"/>
          <Node pos="r" depth="2" NCoef="0" IVar="4" Cut="6.0000000000000000e+00" cType="1" res="-9.9000000000000000e+01" rms="0.0000000000000000e+00" purity="5.1099902391433716e-01" nType="0">
            <Node pos="l" depth="3" NCoef="0" IVar="-1" Cut="0.0000000000000000e+00" cType="1" res="-9.9000000000000000e+01" rms="0.0000000000000000e+00" purity="6.1218178272247314e-01" nType="1"/>
            <Node pos="r" depth="3" NCoef="0" IVar="0" Cut="1.1333832517266273e-03" cType="1" res="-9.9000000000000000e+01" rms="0.0000000000000000e+00" purity="4.9847880005836487e-01" nType="0">
              <Node pos="l" depth="4" NCoef="0" IVar="-1" Cut="0.0000000000000000e+00" cType="1" res="-9.9000000000000000e+01" rms="0.0000000000000000e+00" purity="5.1494657993316650e-01" nType="1"/>
              <Node pos="r" depth="4" NCoef="0" IVar="-1" Cut="0.0000000000000000e+00" cType="1" res="-9.9000000000000000e+01" rms="0.0000000000000000e+00" purity="4.7835171222686768e-01" nType="-1"/>
            </Node>
          </Node>
        </Node>
        <Node pos="r" depth="1" NCoef="0" IVar="-1" Cut="8.0000000000000000e+00" cType="0" res="-9.9000000000000000e+01" rms="0.0000000000000000e+00" purity="4.6085146069526672e-01" nType="-1"/>
      </Node>
    </BinaryTree>
    <BinaryTree type="DecisionTree" boostWeight="7.5131786908772882e-02" itree="30">
      <Node pos="s" depth="0" NCoef="0" IVar="0" Cut="4.7602406702935696e-03" cType="1" res="-9.9000000000000000e+01" rms="0.0000000000000000e+00" purity="5.0306946039199829e-01" nType="0">
        <Node pos="l" depth="1" NCoef="0" IVar="4" Cut="7.0000000000000000e+00" cType="1" res="-9.9000000000000000e+01" rms="0.0000000000000000e+00" purity="5.1393777132034302e-01" nType="0">
          <Node pos="l" depth="2" NCoef="0" IVar="-1" Cut="4.5264157652854919e-01" cType="1" res="-9.9000000000000000e+01" rms="0.0000000000000000e+00" purity="5.8235377073287964e-01" nType="1"/>
          <Node pos="r" depth="2" NCoef="0" IVar="6" Cut="1.6186363063752651e-03" cType="0" res="-9.9000000000000000e+01" rms="0.0000000000000000e+00" purity="4.9938237667083740e-01" nType="0">
            <Node pos="l" depth="3" NCoef="0" IVar="5" Cut="7.0000000000000000e+00" cType="1" res="-9.9000000000000000e+01" rms="0.0000000000000000e+00" purity="5.2975636720657349e-01" nType="0">
              <Node pos="l" depth="4" NCoef="0" IVar="-1" Cut="0.0000000000000000e+00" cType="1" res="-9.9000000000000000e+01" rms="0.0000000000000000e+00" purity="5.8810597658157349e-01" nType="1"/>
              <Node pos="r" depth="4" NCoef="0" IVar="-1" Cut="0.0000000000000000e+00" cType="1" res="-9.9000000000000000e+01" rms="0.0000000000000000e+00" purity="4.6844691038131714e-01" nType="-1"/>
            </Node>
            <Node pos="r" depth="3" NCoef="0" IVar="6" Cut="3.3743161475285888e-04" cType="1" res="-9.9000000000000000e+01" rms="0.0000000000000000e+00" purity="4.9294060468673706e-01" nType="0">
              <Node pos="l" depth="4" NCoef="0" IVar="-1" Cut="0.0000000000000000e+00" cType="1" res="-9.9000000000000000e+01" rms="0.0000000000000000e+00" purity="5.6192231178283691e-01" nType="1"/>
              <Node pos="r" depth="4" NCoef="0" IVar="-1" Cut="0.0000000000000000e+00" cType="1" res="-9.9000000000000000e+01" rms="0.0000000000000000e+00" purity="4.8181250691413879e-01" nType="-1"/>
            </Node>
          </Node>
        </Node>
        <Node pos="r" depth="1" NCoef="0" IVar="-1" Cut="0.0000000000000000e+00" cType="1" res="-9.9000000000000000e+01" rms="0.0000000000000000e+00" purity="4.6930894255638123e-01" nType="-1"/>
      </Node>
    </BinaryTree>
    <BinaryTree type="DecisionTree" boostWeight="6.6785277354643180e-02" itree="31">
      <Node pos="s" depth="0" NCoef="0" IVar="4" Cut="6.0000000000000000e+00" cType="0" res="-9.9000000000000000e+01" rms="0.0000000000000000e+00" purity="5.1211088895797729e-01" nType="0">
        <Node pos="l" depth="1" NCoef="0" IVar="6" Cut="3.8690466899424791e-03" cType="0" res="-9.9000000000000000e+01" rms="0.0000000000000000e+00" purity="5.2182739973068237e-01" nType="0">
          <Node pos="l" depth="2" NCoef="0" IVar="-1" Cut="0.0000000000000000e+00" cType="1" res="-9.9000000000000000e+01" rms="0.0000000000000000e+00" purity="6.7936426401138306e-01" nType="1"/>
          <Node pos="r" depth="2" NCoef="0" IVar="6" Cut="3.0223361682146788e-04" cType="1" res="-9.9000000000000000e+01" rms="0.0000000000000000e+00" purity="5.1068633794784546e-01" nType="0">
            <Node pos="l" depth="3" NCoef="0" IVar="-1" Cut="0.0000000000000000e+00" cType="1" res="-9.9000000000000000e+01" rms="0.0000000000000000e+00" purity="5.8137267827987671e-01" nType="1"/>
            <Node pos="r" depth="3" NCoef="0" IVar="6" Cut="6.4192136051133275e-04" cType="0" res="-9.9000000000000000e+01" rms="0.0000000000000000e+00" purity="5.0547075271606445e-01" nType="0">
              <Node pos="l" depth="4" NCoef="0" IVar="-1" Cut="0.0000000000000000e+00" cType="1" res="-9.9000000000000000e+01" rms="0.0000000000000000e+00" purity="5.1371389627456665e-01" nType="1"/>
              <Node pos="r" depth="4" NCoef="0" IVar="-1" Cut="0.0000000000000000e+00" cType="1" res="-9.9000000000000000e+01" rms="0.0000000000000000e+00" purity="4.8444420099258423e-01" nType="-1"/>
            </Node>
          </Node>
        </Node>
        <Node pos="r" depth="1" NCoef="0" IVar="1" Cut="4.7591761685907841e-03" cType="1" res="-9.9000000000000000e+01" rms="0.0000000000000000e+00" purity="4.7221040725708008e-01" nType="0">
          <Node pos="l" depth="2" NCoef="0" IVar="-1" Cut="0.0000000000000000e+00" cType="1" res="-9.9000000000000000e+01" rms="0.0000000000000000e+00" purity="5.2724081277847290e-01" nType="1"/>
          <Node pos="r" depth="2" NCoef="0" IVar="-1" Cut="0.0000000000000000e+00" cType="1" res="-9.9000000000000000e+01" rms="0.0000000000000000e+00" purity="4.3620631098747253e-01" nType="-1"/>
        </Node>
      </Node>
    </BinaryTree>
    <BinaryTree type="DecisionTree" boostWeight="6.6036041943181717e-02" itree="32">
      <Node pos="s" depth="0" NCoef="0" IVar="6" Cut="7.0147239603102207e-03" cType="0" res="-9.9000000000000000e+01" rms="0.0000000000000000e+00" purity="5.0596088171005249e-01" nType="0">
        <Node pos="l" depth="1" NCoef="0" IVar="-1" Cut="0.0000000000000000e+00" cType="1" res="-9.9000000000000000e+01" rms="0.0000000000000000e+00" purity="5.6923836469650269e-01" nType="1"/>
        <Node pos="r" depth="1" NCoef="0" IVar="6" Cut="4.3896324932575226e-03" cType="0" res="-9.9000000000000000e+01" rms="0.0000000000000000e+00" purity="5.0216901302337646e-01" nType="0">
          <Node pos="l" depth="2" NCoef="0" IVar="-1" Cut="0.0000000000000000e+00" cType="1" res="-9.9000000000000000e+01" rms="0.0000000000000000e+00" purity="5.8964586257934570e-01" nType="1"/>
          <Node pos="r" depth="2" NCoef="0" IVar="4" Cut="8.0000000000000000e+00" cType="0" res="-9.9000000000000000e+01" rms="0.0000000000000000e+00" purity="4.9465337395668030e-01" nType="0">
            <Node pos="l" depth="3" NCoef="0" IVar="-1" Cut="9.5229586586356163e-03" cType="0" res="-9.9000000000000000e+01" rms="0.0000000000000000e+00" purity="5.1285594701766968e-01" nType="1"/>
            <Node pos="r" depth="3" NCoef="0" IVar="6" Cut="2.4212379939854145e-03" cType="0" res="-9.9000000000000000e+01" rms="0.0000000000000000e+00" purity="4.5598584413528442e-01" nType="0">
              <Node pos="l" depth="4" NCoef="0" IVar="-1" Cut="0.0000000000000000e+00" cType="1" res="-9.9000000000000000e+01" rms="0.0000000000000000e+00" purity="5.1181578636169434e-01" nType="1"/>
              <Node pos="r" depth="4" NCoef="0" IVar="-1" Cut="0.0000000000000000e+00" cType="1" res="-9.9000000000000000e+01" rms="0.0000000000000000e+00" purity="4.2104148864746094e-01" nType="-1"/>
            </Node>
          </Node>
        </Node>
      </Node>
    </BinaryTree>
    <BinaryTree type="DecisionTree" boostWeight="4.3681749956394615e-02" itree="33">
      <Node pos="s" depth="0" NCoef="0" IVar="6" Cut="7.0147239603102207e-03" cType="0" res="-9.9000000000000000e+01" rms="0.0000000000000000e+00" purity="4.9509236216545105e-01" nType="0">
        <Node pos="l" depth="1" NCoef="0" IVar="-1" Cut="0.0000000000000000e+00" cType="1" res="-9.9000000000000000e+01" rms="0.0000000000000000e+00" purity="5.5297750234603882e-01" nType="1"/>
        <Node pos="r" depth="1" NCoef="0" IVar="6" Cut="4.3896324932575226e-03" cType="0" res="-9.9000000000000000e+01" rms="0.0000000000000000e+00" purity="4.9163237214088440e-01" nType="0">
          <Node pos="l" depth="2" NCoef="0" IVar="-1" Cut="0.0000000000000000e+00" cType="1" res="-9.9000000000000000e+01" rms="0.0000000000000000e+00" purity="5.7357829809188843e-01" nType="1"/>
          <Node pos="r" depth="2" NCoef="0" IVar="-1" Cut="6.0000000000000000e+00" cType="0" res="-9.9000000000000000e+01" rms="0.0000000000000000e+00" purity="4.8462173342704773e-01" nType="-1"/>
        </Node>
      </Node>
    </BinaryTree>
    <BinaryTree type="DecisionTree" boostWeight="4.4815010921520758e-02" itree="34">
      <Node pos="s" depth="0" NCoef="0" IVar="4" Cut="6.0000000000000000e+00" cType="0" res="-9.9000000000000000e+01" rms="0.0000000000000000e+00" purity="5.0315845012664795e-01" nType="0">
        <Node pos="l" depth="1" NCoef="0" IVar="6" Cut="3.8690466899424791e-03" cType="0" res="-9.9000000000000000e+01" rms="0.0000000000000000e+00" purity="5.1172471046447754e-01" nType="0">
          <Node pos="l" depth="2" NCoef="0" IVar="-1" Cut="0.0000000000000000e+00" cType="1" res="-9.9000000000000000e+01" rms="0.0000000000000000e+00" purity="6.4444392919540405e-01" nType="1"/>
          <Node pos="r" depth="2" NCoef="0" IVar="6" Cut="3.0223361682146788e-04" cType="1" res="-9.9000000000000000e+01" rms="0.0000000000000000e+00" purity="5.0257790088653564e-01" nType="0">
            <Node pos="l" depth="3" NCoef="0" IVar="-1" Cut="0.0000000000000000e+00" cType="1" res="-9.9000000000000000e+01" rms="0.0000000000000000e+00" purity="5.5954051017761230e-01" nType="1"/>
            <Node pos="r" depth="3" NCoef="0" IVar="5" Cut="8.0000000000000000e+00" cType="1" res="-9.9000000000000000e+01" rms="0.0000000000000000e+00" purity="4.9839654564857483e-01" nType="0">
              <Node pos="l" depth="4" NCoef="0" IVar="-1" Cut="0.0000000000000000e+00" cType="1" res="-9.9000000000000000e+01" rms="0.0000000000000000e+00" purity="5.0298011302947998e-01" nType="1"/>
              <Node pos="r" depth="4" NCoef="0" IVar="-1" Cut="0.0000000000000000e+00" cType="1" res="-9.9000000000000000e+01" rms="0.0000000000000000e+00" purity="4.6450895071029663e-01" nType="-1"/>
            </Node>
          </Node>
        </Node>
        <Node pos="r" depth="1" NCoef="0" IVar="1" Cut="4.7591761685907841e-03" cType="1" res="-9.9000000000000000e+01" rms="0.0000000000000000e+00" purity="4.6782881021499634e-01" nType="0">
          <Node pos="l" depth="2" NCoef="0" IVar="-1" Cut="0.0000000000000000e+00" cType="1" res="-9.9000000000000000e+01" rms="0.0000000000000000e+00" purity="5.0483441352844238e-01" nType="1"/>
          <Node pos="r" depth="2" NCoef="0" IVar="-1" Cut="0.0000000000000000e+00" cType="1" res="-9.9000000000000000e+01" rms="0.0000000000000000e+00" purity="4.4366580247879028e-01" nType="-1"/>
        </Node>
      </Node>
    </BinaryTree>
    <BinaryTree type="DecisionTree" boostWeight="4.9050293588722198e-02" itree="35">
      <Node pos="s" depth="0" NCoef="0" IVar="4" Cut="6.0000000000000000e+00" cType="0" res="-9.9000000000000000e+01" rms="0.0000000000000000e+00" purity="4.9647045135498047e-01" nType="0">
        <Node pos="l" depth="1" NCoef="0" IVar="6" Cut="3.8690466899424791e-03" cType="0" res="-9.9000000000000000e+01" rms="0.0000000000000000e+00" purity="5.0285166501998901e-01" nType="0">
          <Node pos="l" depth="2" NCoef="0" IVar="-1" Cut="0.0000000000000000e+00" cType="1" res="-9.9000000000000000e+01" rms="0.0000000000000000e+00" purity="6.3410997390747070e-01" nType="1"/>
          <Node pos="r" depth="2" NCoef="0" IVar="6" Cut="3.0223361682146788e-04" cType="1" res="-9.9000000000000000e+01" rms="0.0000000000000000e+00" purity="4.9385991692543030e-01" nType="0">
            <Node pos="l" depth="3" NCoef="0" IVar="-1" Cut="0.0000000000000000e+00" cType="1" res="-9.9000000000000000e+01" rms="0.0000000000000000e+00" purity="5.4846793413162231e-01" nType="1"/>
            <Node pos="r" depth="3" NCoef="0" IVar="6" Cut="2.5102035142481327e-03" cType="0" res="-9.9000000000000000e+01" rms="0.0000000000000000e+00" purity="4.8986083269119263e-01" nType="0">
              <Node pos="l" depth="4" NCoef="0" IVar="-1" Cut="0.0000000000000000e+00" cType="1" res="-9.9000000000000000e+01" rms="0.0000000000000000e+00" purity="5.1803010702133179e-01" nType="1"/>
              <Node pos="r" depth="4" NCoef="0" IVar="-1" Cut="0.0000000000000000e+00" cType="1" res="-9.9000000000000000e+01" rms="0.0000000000000000e+00" purity="4.8724555969238281e-01" nType="-1"/>
            </Node>
          </Node>
        </Node>
        <Node pos="r" depth="1" NCoef="0" IVar="-1" Cut="4.7591761685907841e-03" cType="1" res="-9.9000000000000000e+01" rms="0.0000000000000000e+00" purity="4.7013252973556519e-01" nType="-1"/>
      </Node>
    </BinaryTree>
    <BinaryTree type="DecisionTree" boostWeight="4.7226343580324771e-02" itree="36">
      <Node pos="s" depth="0" NCoef="0" IVar="3" Cut="3.0000000000000000e+00" cType="0" res="-9.9000000000000000e+01" rms="0.0000000000000000e+00" purity="5.0474810600280762e-01" nType="0">
        <Node pos="l" depth="1" NCoef="0" IVar="0" Cut="4.7602406702935696e-03" cType="0" res="-9.9000000000000000e+01" rms="0.0000000000000000e+00" purity="5.1162010431289673e-01" nType="0">
          <Node pos="l" depth="2" NCoef="0" IVar="-1" Cut="0.0000000000000000e+00" cType="1" res="-9.9000000000000000e+01" rms="0.0000000000000000e+00" purity="5.3024917840957642e-01" nType="1"/>
          <Node pos="r" depth="2" NCoef="0" IVar="4" Cut="6.0000000000000000e+00" cType="1" res="-9.9000000000000000e+01" rms="0.0000000000000000e+00" purity="5.0652539730072021e-01" nType="0">
            <Node pos="l" depth="3" NCoef="0" IVar="-1" Cut="0.0000000000000000e+00" cType="1" res="-9.9000000000000000e+01" rms="0.0000000000000000e+00" purity="5.8590930700302124e-01" nType="1"/>
            <Node pos="r" depth="3" NCoef="0" IVar="4" Cut="1.0000000000000000e+01" cType="0" res="-9.9000000000000000e+01" rms="0.0000000000000000e+00" purity="4.9685975909233093e-01" nType="0">
              <Node pos="l" depth="4" NCoef="0" IVar="-1" Cut="0.0000000000000000e+00" cType="1" res="-9.9000000000000000e+01" rms="0.0000000000000000e+00" purity="5.0574553012847900e-01" nType="1"/>
              <Node pos="r" depth="4" NCoef="0" IVar="-1" Cut="0.0000000000000000e+00" cType="1" res="-9.9000000000000000e+01" rms="0.0000000000000000e+00" purity="4.8296624422073364e-01" nType="-1"/>
            </Node>
          </Node>
        </Node>
        <Node pos="r" depth="1" NCoef="0" IVar="4" Cut="9.0000000000000000e+00" cType="0" res="-9.9000000000000000e+01" rms="0.0000000000000000e+00" purity="4.7714465856552124e-01" nType="0">
          <Node pos="l" depth="2" NCoef="0" IVar="-1" Cut="0.0000000000000000e+00" cType="1" res="-9.9000000000000000e+01" rms="0.0000000000000000e+00" purity="5.2218759059906006e-01" nType="1"/>
          <Node pos="r" depth="2" NCoef="0" IVar="-1" Cut="0.0000000000000000e+00" cType="1" res="-9.9000000000000000e+01" rms="0.0000000000000000e+00" purity="4.6143093705177307e-01" nType="-1"/>
        </Node>
      </Node>
    </BinaryTree>
    <BinaryTree type="DecisionTree" boostWeight="6.6802737380316640e-02" itree="37">
      <Node pos="s" depth="0" NCoef="0" IVar="0" Cut="4.7602406702935696e-03" cType="1" res="-9.9000000000000000e+01" rms="0.0000000000000000e+00" purity="5.0159597396850586e-01" nType="0">
        <Node pos="l" depth="1" NCoef="0" IVar="4" Cut="8.0000000000000000e+00" cType="1" res="-9.9000000000000000e+01" rms="0.0000000000000000e+00" purity="5.0947856903076172e-01" nType="0">
          <Node pos="l" depth="2" NCoef="0" IVar="7" Cut="4.5264157652854919e-01" cType="1" res="-9.9000000000000000e+01" rms="0.0000000000000000e+00" purity="5.5150067806243896e-01" nType="0">
            <Node pos="l" depth="3" NCoef="0" IVar="-1" Cut="0.0000000000000000e+00" cType="1" res="-9.9000000000000000e+01" rms="0.0000000000000000e+00" purity="6.8248254060745239e-01" nType="1"/>
            <Node pos="r" depth="3" NCoef="0" IVar="-1" Cut="1.5867371112108231e-03" cType="1" res="-9.9000000000000000e+01" rms="0.0000000000000000e+00" purity="4.5961126685142517e-01" nType="-1"/>
          </Node>
          <Node pos="r" depth="2" NCoef="0" IVar="0" Cut="2.9468124266713858e-03" cType="1" res="-9.9000000000000000e+01" rms="0.0000000000000000e+00" purity="4.9284145236015320e-01" nType="0">
            <Node pos="l" depth="3" NCoef="0" IVar="4" Cut="1.6000000000000000e+01" cType="0" res="-9.9000000000000000e+01" rms="0.0000000000000000e+00" purity="4.9616053700447083e-01" nType="0">
              <Node pos="l" depth="4" NCoef="0" IVar="-1" Cut="0.0000000000000000e+00" cType="1" res="-9.9000000000000000e+01" rms="0.0000000000000000e+00" purity="5.2590912580490112e-01" nType="1"/>
              <Node pos="r" depth="4" NCoef="0" IVar="-1" Cut="0.0000000000000000e+00" cType="1" res="-9.9000000000000000e+01" rms="0.0000000000000000e+00" purity="4.9276942014694214e-01" nType="-1"/>
            </Node>
            <Node pos="r" depth="3" NCoef="0" IVar="-1" Cut="0.0000000000000000e+00" cType="1" res="-9.9000000000000000e+01" rms="0.0000000000000000e+00" purity="4.6154409646987915e-01" nType="-1"/>
          </Node>
        </Node>
        <Node pos="r" depth="1" NCoef="0" IVar="-1" Cut="0.0000000000000000e+00" cType="1" res="-9.9000000000000000e+01" rms="0.0000000000000000e+00" purity="4.7692152857780457e-01" nType="-1"/>
      </Node>
    </BinaryTree>
    <BinaryTree type="DecisionTree" boostWeight="5.4998077912742853e-02" itree="38">
      <Node pos="s" depth="0" NCoef="0" IVar="4" Cut="6.0000000000000000e+00" cType="0" res="-9.9000000000000000e+01" rms="0.0000000000000000e+00" purity="5.1368474960327148e-01" nType="0">
        <Node pos="l" depth="1" NCoef="0" IVar="6" Cut="3.8690466899424791e-03" cType="0" res="-9.9000000000000000e+01" rms="0.0000000000000000e+00" purity="5.2065128087997437e-01" nType="0">
          <Node pos="l" depth="2" NCoef="0" IVar="-1" Cut="0.0000000000000000e+00" cType="1" res="-9.9000000000000000e+01" rms="0.0000000000000000e+00" purity="6.3683825731277466e-01" nType="1"/>
          <Node pos="r" depth="2" NCoef="0" IVar="4" Cut="1.6000000000000000e+01" cType="1" res="-9.9000000000000000e+01" rms="0.0000000000000000e+00" purity="5.1272296905517578e-01" nType="0">
            <Node pos="l" depth="3" NCoef="0" IVar="6" Cut="4.8915250226855278e-04" cType="0" res="-9.9000000000000000e+01" rms="0.0000000000000000e+00" purity="5.1495456695556641e-01" nType="0">
              <Node pos="l" depth="4" NCoef="0" IVar="-1" Cut="0.0000000000000000e+00" cType="1" res="-9.9000000000000000e+01" rms="0.0000000000000000e+00" purity="5.2357470989227295e-01" nType="1"/>
              <Node pos="r" depth="4" NCoef="0" IVar="-1" Cut="0.0000000000000000e+00" cType="1" res="-9.9000000000000000e+01" rms="0.0000000000000000e+00" purity="4.8036307096481323e-01" nType="-1"/>
            </Node>
            <Node pos="r" depth="3" NCoef="0" IVar="-1" Cut="0.0000000000000000e+00" cType="1" res="-9.9000000000000000e+01" rms="0.0000000000000000e+00" purity="4.8663073778152466e-01" nType="-1"/>
          </Node>
        </Node>
        <Node pos="r" depth="1" NCoef="0" IVar="1" Cut="4.7591761685907841e-03" cType="1" res="-9.9000000000000000e+01" rms="0.0000000000000000e+00" purity="4.8482969403266907e-01" nType="0">
          <Node pos="l" depth="2" NCoef="0" IVar="-1" Cut="0.0000000000000000e+00" cType="1" res="-9.9000000000000000e+01" rms="0.0000000000000000e+00" purity="5.0554603338241577e-01" nType="1"/>
          <Node pos="r" depth="2" NCoef="0" IVar="-1" Cut="0.0000000000000000e+00" cType="1" res="-9.9000000000000000e+01" rms="0.0000000000000000e+00" purity="4.7122603654861450e-01" nType="-1"/>
        </Node>
      </Node>
    </BinaryTree>
    <BinaryTree type="DecisionTree" boostWeight="4.3629167151232835e-02" itree="39">
      <Node pos="s" depth="0" NCoef="0" IVar="6" Cut="7.0147239603102207e-03" cType="0" res="-9.9000000000000000e+01" rms="0.0000000000000000e+00" purity="5.0862210988998413e-01" nType="0">
        <Node pos="l" depth="1" NCoef="0" IVar="-1" Cut="0.0000000000000000e+00" cType="1" res="-9.9000000000000000e+01" rms="0.0000000000000000e+00" purity="5.5700892210006714e-01" nType="1"/>
        <Node pos="r" depth="1" NCoef="0" IVar="6" Cut="5.0458991900086403e-03" cType="0" res="-9.9000000000000000e+01" rms="0.0000000000000000e+00" purity="5.0576579570770264e-01" nType="0">
          <Node pos="l" depth="2" NCoef="0" IVar="-1" Cut="0.0000000000000000e+00" cType="1" res="-9.9000000000000000e+01" rms="0.0000000000000000e+00" purity="5.8475381135940552e-01" nType="1"/>
          <Node pos="r" depth="2" NCoef="0" IVar="4" Cut="7.0000000000000000e+00" cType="0" res="-9.9000000000000000e+01" rms="0.0000000000000000e+00" purity="5.0130474567413330e-01" nType="0">
            <Node pos="l" depth="3" NCoef="0" IVar="-1" Cut="9.5229586586356163e-03" cType="0" res="-9.9000000000000000e+01" rms="0.0000000000000000e+00" purity="5.1116472482681274e-01" nType="1"/>
            <Node pos="r" depth="3" NCoef="0" IVar="-1" Cut="2.5467006489634514e-03" cType="0" res="-9.9000000000000000e+01" rms="0.0000000000000000e+00" purity="4.6691101789474487e-01" nType="-1"/>
          </Node>
        </Node>
      </Node>
    </BinaryTree>
    <BinaryTree type="DecisionTree" boostWeight="4.9224877345598959e-02" itree="40">
      <Node pos="s" depth="0" NCoef="0" IVar="6" Cut="7.0147239603102207e-03" cType="0" res="-9.9000000000000000e+01" rms="0.0000000000000000e+00" purity="5.0206196308135986e-01" nType="0">
        <Node pos="l" depth="1" NCoef="0" IVar="-1" Cut="0.0000000000000000e+00" cType="1" res="-9.9000000000000000e+01" rms="0.0000000000000000e+00" purity="5.4621827602386475e-01" nType="1"/>
        <Node pos="r" depth="1" NCoef="0" IVar="6" Cut="3.4052319824695587e-03" cType="0" res="-9.9000000000000000e+01" rms="0.0000000000000000e+00" purity="4.9945962429046631e-01" nType="0">
          <Node pos="l" depth="2" NCoef="0" IVar="-1" Cut="4.6083908528089523e-03" cType="0" res="-9.9000000000000000e+01" rms="0.0000000000000000e+00" purity="5.4616010189056396e-01" nType="1"/>
          <Node pos="r" depth="2" NCoef="0" IVar="4" Cut="9.0000000000000000e+00" cType="0" res="-9.9000000000000000e+01" rms="0.0000000000000000e+00" purity="4.9249437451362610e-01" nType="0">
            <Node pos="l" depth="3" NCoef="0" IVar="1" Cut="4.7588548623025417e-03" cType="0" res="-9.9000000000000000e+01" rms="0.0000000000000000e+00" purity="5.0266695022583008e-01" nType="0">
              <Node pos="l" depth="4" NCoef="0" IVar="-1" Cut="0.0000000000000000e+00" cType="1" res="-9.9000000000000000e+01" rms="0.0000000000000000e+00" purity="5.2403533458709717e-01" nType="1"/>
              <Node pos="r" depth="4" NCoef="0" IVar="-1" Cut="0.0000000000000000e+00" cType="1" res="-9.9000000000000000e+01" rms="0.0000000000000000e+00" purity="4.9475824832916260e-01" nType="-1"/>
            </Node>
            <Node pos="r" depth="3" NCoef="0" IVar="6" Cut="2.1829095203429461e-03" cType="0" res="-9.9000000000000000e+01" rms="0.0000000000000000e+00" purity="4.7664272785186768e-01" nType="0">
              <Node pos="l" depth="4" NCoef="0" IVar="-1" Cut="0.0000000000000000e+00" cType="1" res="-9.9000000000000000e+01" rms="0.0000000000000000e+00" purity="5.1887035369873047e-01" nType="1"/>
              <Node pos="r" depth="4" NCoef="0" IVar="-1" Cut="0.0000000000000000e+00" cType="1" res="-9.9000000000000000e+01" rms="0.0000000000000000e+00" purity="4.5813158154487610e-01" nType="-1"/>
            </Node>
          </Node>
        </Node>
      </Node>
    </BinaryTree>
    <BinaryTree type="DecisionTree" boostWeight="3.4904465619610324e-02" itree="41">
      <Node pos="s" depth="0" NCoef="0" IVar="0" Cut="4.7602406702935696e-03" cType="1" res="-9.9000000000000000e+01" rms="0.0000000000000000e+00" purity="5.0424891710281372e-01" nType="0">
        <Node pos="l" depth="1" NCoef="0" IVar="4" Cut="7.0000000000000000e+00" cType="1" res="-9.9000000000000000e+01" rms="0.0000000000000000e+00" purity="5.1136124134063721e-01" nType="0">
          <Node pos="l" depth="2" NCoef="0" IVar="-1" Cut="4.5264157652854919e-01" cType="1" res="-9.9000000000000000e+01" rms="0.0000000000000000e+00" purity="5.6633168458938599e-01" nType="1"/>
          <Node pos="r" depth="2" NCoef="0" IVar="0" Cut="3.1734900549054146e-03" cType="1" res="-9.9000000000000000e+01" rms="0.0000000000000000e+00" purity="4.9986907839775085e-01" nType="0">
            <Node pos="l" depth="3" NCoef="0" IVar="-1" Cut="3.0000000000000000e+00" cType="1" res="-9.9000000000000000e+01" rms="0.0000000000000000e+00" purity="5.0374937057495117e-01" nType="1"/>
            <Node pos="r" depth="3" NCoef="0" IVar="-1" Cut="0.0000000000000000e+00" cType="1" res="-9.9000000000000000e+01" rms="0.0000000000000000e+00" purity="4.5819982886314392e-01" nType="-1"/>
          </Node>
        </Node>
        <Node pos="r" depth="1" NCoef="0" IVar="-1" Cut="0.0000000000000000e+00" cType="1" res="-9.9000000000000000e+01" rms="0.0000000000000000e+00" purity="4.8194766044616699e-01" nType="-1"/>
      </Node>
    </BinaryTree>
    <BinaryTree type="DecisionTree" boostWeight="2.7326339011631843e-02" itree="42">
      <Node pos="s" depth="0" NCoef="0" IVar="6" Cut="7.0147239603102207e-03" cType="0" res="-9.9000000000000000e+01" rms="0.0000000000000000e+00" purity="5.0067591667175293e-01" nType="0">
        <Node pos="l" depth="1" NCoef="0" IVar="-1" Cut="0.0000000000000000e+00" cType="1" res="-9.9000000000000000e+01" rms="0.0000000000000000e+00" purity="5.3765892982482910e-01" nType="1"/>
        <Node pos="r" depth="1" NCoef="0" IVar="6" Cut="5.0458991900086403e-03" cType="0" res="-9.9000000000000000e+01" rms="0.0000000000000000e+00" purity="4.9850311875343323e-01" nType="0">
          <Node pos="l" depth="2" NCoef="0" IVar="-1" Cut="0.0000000000000000e+00" cType="1" res="-9.9000000000000000e+01" rms="0.0000000000000000e+00" purity="5.6469917297363281e-01" nType="1"/>
          <Node pos="r" depth="2" NCoef="0" IVar="4" Cut="6.0000000000000000e+00" cType="0" res="-9.9000000000000000e+01" rms="0.0000000000000000e+00" purity="4.9479410052299500e-01" nType="0">
            <Node pos="l" depth="3" NCoef="0" IVar="5" Cut="8.0000000000000000e+00" cType="1" res="-9.9000000000000000e+01" rms="0.0000000000000000e+00" purity="4.9991908669471741e-01" nType="0">
              <Node pos="l" depth="4" NCoef="0" IVar="-1" Cut="0.0000000000000000e+00" cType="1" res="-9.9000000000000000e+01" rms="0.0000000000000000e+00" purity="5.0267553329467773e-01" nType="1"/>
              <Node pos="r" depth="4" NCoef="0" IVar="-1" Cut="0.0000000000000000e+00" cType="1" res="-9.9000000000000000e+01" rms="0.0000000000000000e+00" purity="4.7922304272651672e-01" nType="-1"/>
            </Node>
            <Node pos="r" depth="3" NCoef="0" IVar="-1" Cut="0.0000000000000000e+00" cType="1" res="-9.9000000000000000e+01" rms="0.0000000000000000e+00" purity="4.6069720387458801e-01" nType="-1"/>
          </Node>
        </Node>
      </Node>
    </BinaryTree>
    <BinaryTree type="DecisionTree" boostWeight="3.9377134541483623e-02" itree="43">
      <Node pos="s" depth="0" NCoef="0" IVar="6" Cut="7.0147239603102207e-03" cType="0" res="-9.9000000000000000e+01" rms="0.0000000000000000e+00" purity="4.9668872356414795e-01" nType="0">
        <Node pos="l" depth="1" NCoef="0" IVar="-1" Cut="0.0000000000000000e+00" cType="1" res="-9.9000000000000000e+01" rms="0.0000000000000000e+00" purity="5.3085952997207642e-01" nType="1"/>
        <Node pos="r" depth="1" NCoef="0" IVar="6" Cut="4.0614986792206764e-03" cType="0" res="-9.9000000000000000e+01" rms="0.0000000000000000e+00" purity="4.9468255043029785e-01" nType="0">
          <Node pos="l" depth="2" NCoef="0" IVar="-1" Cut="0.0000000000000000e+00" cType="1" res="-9.9000000000000000e+01" rms="0.0000000000000000e+00" purity="5.4293525218963623e-01" nType="1"/>
          <Node pos="r" depth="2" NCoef="0" IVar="6" Cut="3.1140210921876132e-04" cType="1" res="-9.9000000000000000e+01" rms="0.0000000000000000e+00" purity="4.8980817198753357e-01" nType="0">
            <Node pos="l" depth="3" NCoef="0" IVar="-1" Cut="0.0000000000000000e+00" cType="1" res="-9.9000000000000000e+01" rms="0.0000000000000000e+00" purity="5.2892976999282837e-01" nType="1"/>
            <Node pos="r" depth="3" NCoef="0" IVar="6" Cut="2.6328864041715860e-03" cType="0" res="-9.9000000000000000e+01" rms="0.0000000000000000e+00" purity="4.8702672123908997e-01" nType="0">
              <Node pos="l" depth="4" NCoef="0" IVar="-1" Cut="0.0000000000000000e+00" cType="1" res="-9.9000000000000000e+01" rms="0.0000000000000000e+00" purity="5.1129889488220215e-01" nType="1"/>
              <Node pos="r" depth="4" NCoef="0" IVar="-1" Cut="0.0000000000000000e+00" cType="1" res="-9.9000000000000000e+01" rms="0.0000000000000000e+00" purity="4.8365414142608643e-01" nType="-1"/>
            </Node>
          </Node>
        </Node>
      </Node>
    </BinaryTree>
    <BinaryTree type="DecisionTree" boostWeight="3.6055828031520458e-02" itree="44">
      <Node pos="s" depth="0" NCoef="0" IVar="4" Cut="6.0000000000000000e+00" cType="0" res="-9.9000000000000000e+01" rms="0.0000000000000000e+00" purity="5.0068998336791992e-01" nType="0">
        <Node pos="l" depth="1" NCoef="0" IVar="6" Cut="3.8690466899424791e-03" cType="0" res="-9.9000000000000000e+01" rms="0.0000000000000000e+00" purity="5.0547778606414795e-01" nType="0">
          <Node pos="l" depth="2" NCoef="0" IVar="-1" Cut="0.0000000000000000e+00" cType="1" res="-9.9000000000000000e+01" rms="0.0000000000000000e+00" purity="5.9428197145462036e-01" nType="1"/>
          <Node pos="r" depth="2" NCoef="0" IVar="6" Cut="2.0855939947068691e-03" cType="1" res="-9.9000000000000000e+01" rms="0.0000000000000000e+00" purity="4.9957096576690674e-01" nType="0">
            <Node pos="l" depth="3" NCoef="0" IVar="5" Cut="6.0000000000000000e+00" cType="0" res="-9.9000000000000000e+01" rms="0.0000000000000000e+00" purity="5.0238829851150513e-01" nType="0">
              <Node pos="l" depth="4" NCoef="0" IVar="-1" Cut="0.0000000000000000e+00" cType="1" res="-9.9000000000000000e+01" rms="0.0000000000000000e+00" purity="5.2165424823760986e-01" nType="1"/>
              <Node pos="r" depth="4" NCoef="0" IVar="-1" Cut="0.0000000000000000e+00" cType="1" res="-9.9000000000000000e+01" rms="0.0000000000000000e+00" purity="4.9314817786216736e-01" nType="-1"/>
            </Node>
            <Node pos="r" depth="3" NCoef="0" IVar="-1" Cut="0.0000000000000000e+00" cType="1" res="-9.9000000000000000e+01" rms="0.0000000000000000e+00" purity="4.8080697655677795e-01" nType="-1"/>
          </Node>
        </Node>
        <Node pos="r" depth="1" NCoef="0" IVar="-1" Cut="4.7591761685907841e-03" cType="1" res="-9.9000000000000000e+01" rms="0.0000000000000000e+00" purity="4.8075881600379944e-01" nType="-1"/>
      </Node>
    </BinaryTree>
    <BinaryTree type="DecisionTree" boostWeight="3.5216872672778197e-02" itree="45">
      <Node pos="s" depth="0" NCoef="0" IVar="3" Cut="3.0000000000000000e+00" cType="0" res="-9.9000000000000000e+01" rms="0.0000000000000000e+00" purity="5.0495892763137817e-01" nType="0">
        <Node pos="l" depth="1" NCoef="0" IVar="0" Cut="4.7602406702935696e-03" cType="0" res="-9.9000000000000000e+01" rms="0.0000000000000000e+00" purity="5.0953066349029541e-01" nType="0">
          <Node pos="l" depth="2" NCoef="0" IVar="-1" Cut="0.0000000000000000e+00" cType="1" res="-9.9000000000000000e+01" rms="0.0000000000000000e+00" purity="5.3266143798828125e-01" nType="1"/>
          <Node pos="r" depth="2" NCoef="0" IVar="4" Cut="6.0000000000000000e+00" cType="1" res="-9.9000000000000000e+01" rms="0.0000000000000000e+00" purity="5.0319433212280273e-01" nType="0">
            <Node pos="l" depth="3" NCoef="0" IVar="-1" Cut="0.0000000000000000e+00" cType="1" res="-9.9000000000000000e+01" rms="0.0000000000000000e+00" purity="5.7301986217498779e-01" nType="1"/>
            <Node pos="r" depth="3" NCoef="0" IVar="-1" Cut="2.4934420362114906e-03" cType="1" res="-9.9000000000000000e+01" rms="0.0000000000000000e+00" purity="4.9478757381439209e-01" nType="-1"/>
          </Node>
        </Node>
        <Node pos="r" depth="1" NCoef="0" IVar="1" Cut="4.7609093599021435e-03" cType="1" res="-9.9000000000000000e+01" rms="0.0000000000000000e+00" purity="4.8639518022537231e-01" nType="0">
          <Node pos="l" depth="2" NCoef="0" IVar="-1" Cut="0.0000000000000000e+00" cType="1" res="-9.9000000000000000e+01" rms="0.0000000000000000e+00" purity="5.0732326507568359e-01" nType="1"/>
          <Node pos="r" depth="2" NCoef="0" IVar="-1" Cut="0.0000000000000000e+00" cType="1" res="-9.9000000000000000e+01" rms="0.0000000000000000e+00" purity="4.6665328741073608e-01" nType="-1"/>
        </Node>
      </Node>
    </BinaryTree>
    <BinaryTree type="DecisionTree" boostWeight="3.1395431699473508e-02" itree="46">
      <Node pos="s" depth="0" NCoef="0" IVar="4" Cut="6.0000000000000000e+00" cType="0" res="-9.9000000000000000e+01" rms="0.0000000000000000e+00" purity="5.0784873962402344e-01" nType="0">
        <Node pos="l" depth="1" NCoef="0" IVar="6" Cut="3.8690466899424791e-03" cType="0" res="-9.9000000000000000e+01" rms="0.0000000000000000e+00" purity="5.1383441686630249e-01" nType="0">
          <Node pos="l" depth="2" NCoef="0" IVar="-1" Cut="0.0000000000000000e+00" cType="1" res="-9.9000000000000000e+01" rms="0.0000000000000000e+00" purity="5.8720207214355469e-01" nType="1"/>
